
// Related parameters for each of the 6 model.
#ifndef Brian_Model_Matrix_h_
#define Brian_Model_Matrix_h_

//weight for each for the six model
static const double weights_ffsame[2] = { 0.661234688636007, 0.338765311363993 },
weights_mmsame[2] = { 0.690765591988356, 0.309234408011644 },
weights_ffdiff[2] = { 0.343233243372119, 0.656766756627881 },
weights_mmdiff[2] = { 0.691375222477847, 0.308624777522153 },
weights_fmdiff[2] = { 0.642530410205177, 0.357469589794823 },
weights_mfdiff[2] = { 0.357361132383134, 0.642638867616866 };



//const for each for the six model
static const double consts_ffsame[2] = { 1.638148632089837e-05, 2.184900817299280e-07 },
consts_mmsame[2] = { 0.005476905790590, 8.523401398142400e-06 },
consts_ffdiff[2] = { 1.290072367246161e-09, 2.584964139689482e-08 },
consts_mmdiff[2] = { 1.592666726685431e-06, 5.823520298951649e-08 },
consts_fmdiff[2] = { 3.085301863418429e-08, 2.306500035265532e-09 },
consts_mfdiff[2] = { 2.359976544423434e-09, 3.088934915331585e-08 };



//mu for each for the six model
static const double mu_ffsame[2][29] = { { 187.752608, 24.701554, 188.765457, 24.538882, -0.057237, -0.030075, -0.009607, -0.039820, -0.033572, -0.061875, -0.102574, -0.100836, -0.130578, -0.107527, -0.098185, -0.053856, 0.002513, 0.062960, 0.106774, 0.127735, 0.110462, 0.075174, -0.011077, -0.088296, -0.090144, -0.045360, -0.014585, -0.030279, -0.074628 },
{ 215.126138, 28.028966, 216.232189, 28.415775, -0.103506, -0.027902, -0.012457, -0.052496, -0.004212, -0.096419, -0.036769, -0.136219, -0.105132, -0.150684, -0.088150, -0.107551, -0.027842, 0.014361, 0.128588, 0.198232, 0.206172, 0.170412, 0.078003, -0.000327, -0.019365, 0.003805, 0.031094, 0.024346, 0.007863 } },
mu_mmsame[2][29] = { { 114.576866, 14.934550, 115.120039, 15.074329, -0.041303, -0.059556, -0.076396, -0.102716, -0.118575, -0.143581, -0.166224, -0.178695, -0.171887, -0.144558, -0.073272, 0.032859, 0.117999, 0.161157, 0.143955, 0.082507, -0.018008, -0.112525, -0.112336, -0.059254, -0.029582, -0.067755, -0.116205, -0.130264, -0.152262 },
{ 133.518066, 15.685400, 134.303679, 16.783152, -0.007030, 0.010563, -0.041776, -0.068860, -0.075003, -0.080000, -0.103821, -0.117602, -0.102344, -0.051324, 0.009340, 0.078553, 0.128103, 0.150808, 0.130410, 0.087526, 0.020143, -0.051808, -0.045241, -0.012277, 0.004822, -0.025908, -0.078908, -0.114050, -0.114810 } },
mu_ffdiff[2][29] = { { 210.011320, 27.955345, 209.597865, 28.021482, -0.011238, -0.009410, 0.003673, -0.011700, -0.009995, -0.007870, -0.011838, -0.010709, -0.009163, -0.009430, -0.014688, -0.013033, -0.010592, -0.006822, -0.005833, -0.005195, -0.005066, -0.005598, -0.006530, -0.001274, 0.001334, -0.002501, -0.002522, -0.001848, 0.006501 },
{ 191.315036, 24.680105, 191.253399, 24.752371, -0.009378, -0.002768, -0.002392, -0.000085, 0.000395, -0.000837, 0.000596, -0.002717, 0.002086, -0.000228, -0.001027, -0.002511, -0.004719, -0.006885, -0.005314, -0.004724, -0.002972, 0.000143, 0.001648, 0.002808, 0.000331, -0.001100, -0.001379, -0.000837, -0.000949 } },
mu_mmdiff[2][29] = { { 116.270627, 15.308084, 116.246824, 15.288520, -0.000127, -0.004516, -0.002604, -0.004304, -0.003312, -0.005262, -0.006298, -0.006267, -0.008215, -0.008693, -0.008017, -0.007240, -0.005559, -0.003282, -0.001580, -0.000345, 0.001154, 0.003729, 0.004282, 0.004870, 0.003881, -0.000607, -0.000267, -0.001785, -0.001145 },
{ 130.819569, 15.519229, 130.956892, 15.607015, 0.001742, 0.000523, 0.004226, 0.005524, 0.002624, 0.005748, 0.006855, 0.003920, 0.003894, 0.000093, -0.000928, -0.003703, -0.005282, -0.006428, -0.007197, -0.006575, -0.002905, -0.006692, -0.010371, -0.009885, 0.001212, 0.008517, 0.007351, 0.006203, 0.008012 } },
mu_fmdiff[2][29] = { { 187.424987, 24.368113, 120.620211, 15.356603, -0.651799, -0.404225, -0.379450, 0.024903, -0.138175, -0.265461, -0.480563, -0.575194, -0.691874, -0.867711, -0.809885, -0.612038, -0.445846, -0.340086, -0.407205, -0.573201, -0.618594, -0.288453, 0.158412, -0.008929, -0.768696, -1.128590, -0.512887, 0.553276, 1.145541 },
{ 215.835191, 28.594765, 120.797572, 15.428240, -1.643115, -1.071739, -0.664658, -0.540301, -0.414843, -0.627601, -0.801490, -0.846985, -0.961236, -1.131389, -1.145260, -0.980403, -0.770182, -0.614860, -0.633755, -0.790556, -0.847262, -0.558411, -0.018268, 0.007838, -0.677979, -1.176220, -0.665814, 0.376843, 1.006941 } },
mu_mfdiff[2][29] = { { 120.807443, 15.428745, 215.671583, 28.571145, 1.634971, 1.065365, 0.671561, 0.535431, 0.414429, 0.631710, 0.799779, 0.852158, 0.964919, 1.131976, 1.139813, 0.977596, 0.758701, 0.601248, 0.618490, 0.776515, 0.832931, 0.539175, -0.003866, -0.026728, 0.659618, 1.158806, 0.665588, -0.369449, -0.994187 },
{ 120.635022, 15.387500, 187.527698, 24.332545, 0.657591, 0.403358, 0.379962, -0.017818, 0.138856, 0.267586, 0.475868, 0.577002, 0.694862, 0.874698, 0.818616, 0.620965, 0.451311, 0.340428, 0.408516, 0.577336, 0.622346, 0.292373, -0.154652, 0.013031, 0.778225, 1.140973, 0.527768, -0.538903, -1.141701 } };




//inverse of sigma matrix for the six model
static const double S_inv_ffsame[2][29][29] = { { { 0.008737, 0.004851, -0.006539, -0.003780, 0.028367, 0.020284, 0.011147, -0.014770, 0.012652, -0.004844, 0.011604, 0.011170, -0.011871, -0.012050, -0.009337, 0.016103, 0.002807, -0.016695, 0.007220, 0.019907, -0.023330, 0.031017, -0.002040, -0.009624, 0.003709, 0.004915, -0.007118, -0.000735, -0.014939 },
{ 0.004851, 0.022814, -0.003988, -0.011136, 0.027259, -0.004295, -0.011205, -0.016571, 0.051098, -0.003695, -0.013459, 0.026861, 0.005466, -0.071917, 0.017340, 0.004363, 0.030571, -0.010613, -0.020423, 0.000560, 0.002020, 0.010928, -0.018748, 0.000370, 0.000864, 0.002080, -0.000824, -0.014703, -0.002548 },
{ -0.006539, -0.003988, 0.008206, 0.004564, -0.023765, -0.018673, -0.005774, 0.016094, -0.021665, -0.003056, -0.005553, -0.013482, 0.012637, 0.020005, 0.007703, -0.019102, -0.002597, 0.006434, 0.017850, -0.049617, 0.041776, -0.033454, 0.002823, 0.007916, -0.007333, -0.005054, 0.017669, -0.011118, 0.020330 },
{ -0.003780, -0.011136, 0.004564, 0.022687, -0.014121, -0.003252, 0.013140, 0.014887, -0.032491, -0.005695, 0.012666, -0.026768, 0.002381, 0.067568, 0.002801, -0.020389, -0.050116, 0.028961, 0.027457, -0.016355, 0.015679, -0.015570, 0.006870, -0.014878, -0.005601, 0.036081, -0.020610, 0.018763, 0.018654 },
{ 0.028367, 0.027259, -0.023765, -0.014121, 2.273172, -0.115705, -0.966542, -1.769201, 1.772002, 0.378876, -0.954307, 0.223825, 0.741642, -0.956674, 0.501434, -0.047507, -0.464946, 0.414569, -0.340689, 0.151767, -0.063679, -0.032321, 0.322565, -0.147883, 0.047772, -0.463757, 0.962653, -0.633115, -0.036378 },
{ 0.020284, -0.004295, -0.018673, -0.003252, -0.115705, 3.193427, 0.946276, -1.117845, -1.921874, 0.882029, -0.084057, -1.465235, 0.838459, 0.514574, -0.747140, 0.360712, -0.439293, 0.068558, -0.367474, 0.239407, -0.310151, 0.435942, -0.057010, -0.258072, 0.063397, -0.036201, 0.709670, -0.692046, 0.121383 },
{ 0.011147, -0.011205, -0.005774, 0.013140, -0.966542, 0.946276, 3.943691, 1.437905, -3.842618, -1.472790, 1.581958, -0.700618, -0.843782, 2.000241, -1.778018, 0.264498, 0.646096, -1.400786, 0.656276, 0.110199, -0.727080, 0.941760, -0.580052, 0.289845, -0.796797, 1.085295, -0.553217, 0.012787, 0.251070 },
{ -0.014770, -0.016571, 0.016094, 0.014887, -1.769201, -1.117845, 1.437905, 6.708252, -1.543999, -5.029704, 1.137904, 1.623660, -2.803460, 1.774189, -0.281192, -0.237338, 0.485137, -1.065043, 1.069168, -0.422447, 0.203693, -0.240880, 0.245719, -1.173402, 0.330941, 0.536776, -0.911685, 1.001032, 0.353029 },
{ 0.012652, 0.051098, -0.021665, -0.032491, 1.772002, -1.921874, -3.842618, -1.543999, 10.999621, 0.894372, -6.755162, 0.976562, 1.585426, -2.542366, 1.656605, -1.268749, 1.103081, 0.361323, -1.449983, 1.697724, -0.270968, -1.373572, 1.354071, -1.268300, 0.899563, -0.991473, 0.875609, 0.365331, -0.248684 },
{ -0.004844, -0.003695, -0.003056, -0.005695, 0.378876, 0.882029, -1.472790, -5.029704, 0.894372, 11.928544, -1.955039, -8.234692, 3.831344, -1.042315, 0.812695, -0.678338, -0.397272, 1.584066, -1.987031, 1.414379, 0.136330, -1.062746, 0.809533, 0.306320, -0.663781, -0.276234, 0.972938, -0.636752, 0.031429 },
{ 0.011604, -0.013459, -0.005553, 0.012666, -0.954307, -0.084057, 1.581958, 1.137904, -6.755162, -1.955039, 12.001118, -0.465257, -8.320065, 3.399817, 0.282812, 1.068623, -2.008788, 1.123645, 0.293099, -1.267380, 0.295363, 2.071420, -2.353002, 1.120348, -0.168314, 0.540271, -1.492330, 1.000853, -0.071186 },
{ 0.011170, 0.026861, -0.013482, -0.026768, 0.223825, -1.465235, -0.700618, 1.623660, 0.976562, -8.234692, -0.465257, 14.804680, -2.785337, -7.057498, 1.998618, 2.187449, -0.487452, -0.874765, 1.514722, -1.009447, 0.523820, -0.187287, 0.665333, -0.619047, 0.357165, 0.150462, -1.003986, 0.831374, -0.212706 },
{ -0.011871, 0.005466, 0.012637, 0.002381, 0.741642, 0.838459, -0.843782, -2.803460, 1.585426, 3.831344, -8.320065, -2.785337, 17.519335, -6.999288, -4.228061, -0.360285, 3.654488, -1.683601, 0.741593, 0.005112, 0.684418, -1.829607, 2.406108, -0.778533, 0.265682, -1.195629, 1.690226, -1.439925, 0.487552 },
{ -0.012050, -0.071917, 0.020005, 0.067568, -0.956674, 0.514574, 2.000241, 1.774189, -2.542366, -1.042315, 3.399817, -7.057498, -6.999288, 21.088518, -8.084557, -4.663589, -0.081670, 4.079756, -1.464185, -0.380808, -0.906021, 2.540947, -3.492039, 2.486760, -0.735794, 0.995211, -0.531288, -0.215175, 0.071037 },
{ -0.009337, 0.017340, 0.007703, 0.002801, 0.501434, -0.747140, -1.778018, -0.281192, 1.656605, 0.812695, 0.282812, 1.998618, -4.228061, -8.084557, 18.041561, -5.883873, -3.307551, -1.619020, 3.436030, -0.890072, 0.556642, -1.223280, 0.975330, -0.727599, -0.184918, 0.636162, -0.982026, 1.029303, -0.078738 },
{ 0.016103, 0.004363, -0.019102, -0.020389, -0.047507, 0.360712, 0.264498, -0.237338, -1.268749, -0.678338, 1.068623, 2.187449, -0.360285, -4.663589, -5.883873, 20.159954, -11.887599, 0.871636, -0.949345, 1.663392, -0.301696, -0.662788, 1.411767, -1.171898, 1.402863, -1.417857, 0.999770, -1.593013, 0.297410 },
{ 0.002807, 0.030571, -0.002597, -0.050116, -0.464946, -0.439293, 0.646096, 0.485137, 1.103081, -0.397272, -2.008788, -0.487452, 3.654488, -0.081670, -3.307551, -11.887599, 25.457204, -15.631673, 3.013893, -1.839999, 2.265924, 0.070903, -1.311394, 1.340191, -1.062244, 0.767061, -1.006497, 0.970724, -0.371202 },
{ -0.016695, -0.010613, 0.006434, 0.028961, 0.414569, 0.068558, -1.400786, -1.065043, 0.361323, 1.584066, 1.123645, -0.874765, -1.683601, 4.079756, -1.619020, 0.871636, -15.631673, 31.175089, -23.285751, 8.392089, -3.530912, 2.137988, -1.501113, 0.164747, 0.439812, -0.688823, 0.780991, 0.467974, 0.002604 },
{ 0.007220, -0.020423, 0.017850, 0.027457, -0.340689, -0.367474, 0.656276, 1.069168, -1.449983, -1.987031, 0.293099, 1.514722, 0.741593, -1.464185, 3.436030, -0.949345, 3.013893, -23.285751, 38.330098, -27.008976, 10.361303, -3.458241, 2.195125, -1.189883, 1.598346, -0.372249, -1.154842, 0.110200, -0.537729 },
{ 0.019907, 0.000560, -0.049617, -0.016355, 0.151767, 0.239407, 0.110199, -0.422447, 1.697724, 1.414379, -1.267380, -1.009447, 0.005112, -0.380808, -0.890072, 1.663392, -1.839999, 8.392089, -27.008976, 41.374146, -31.300575, 11.504670, -2.889353, 1.634897, -2.491012, 0.924699, 0.463635, 0.006961, 0.658035 },
{ -0.023330, 0.002020, 0.041776, 0.015679, -0.063679, -0.310151, -0.727080, 0.203693, -0.270968, 0.136330, 0.295363, 0.523820, 0.684418, -0.906021, 0.556642, -0.301696, 2.265924, -3.530912, 10.361303, -31.300575, 45.705673, -30.402197, 11.142757, -3.717652, 1.195686, -0.753266, 0.096339, -0.380864, -0.005764 },
{ 0.031017, 0.010928, -0.033454, -0.015570, -0.032321, 0.435942, 0.941760, -0.240880, -1.373572, -1.062746, 2.071420, -0.187287, -1.829607, 2.540947, -1.223280, -0.662788, 0.070903, 2.137988, -3.458241, 11.504670, -30.402197, 37.651783, -24.423288, 11.262909, -3.110821, 0.705382, -0.820854, -0.215747, -0.153002 },
{ -0.002040, -0.018748, 0.002823, 0.006870, 0.322565, -0.057010, -0.580052, 0.245719, 1.354071, 0.809533, -2.353002, 0.665333, 2.406108, -3.492039, 0.975330, 1.411767, -1.311394, -1.501113, 2.195125, -2.889353, 11.142757, -24.423288, 30.444883, -23.159220, 12.000089, -4.850141, 1.573434, -0.351352, -0.024005 },
{ -0.009624, 0.000370, 0.007916, -0.014878, -0.147883, -0.258072, 0.289845, -1.173402, -1.268300, 0.306320, 1.120348, -0.619047, -0.778533, 2.486760, -0.727599, -1.171898, 1.340191, 0.164747, -1.189883, 1.634897, -3.717652, 11.262909, -23.159220, 32.902387, -27.781116, 13.612424, -3.996255, 0.487576, -0.987861 },
{ 0.003709, 0.000864, -0.007333, -0.005601, 0.047772, 0.063397, -0.796797, 0.330941, 0.899563, -0.663781, -0.168314, 0.357165, 0.265682, -0.735794, -0.184918, 1.402863, -1.062244, 0.439812, 1.598346, -2.491012, 1.195686, -3.110821, 12.000089, -27.781116, 43.018940, -34.254187, 13.149199, -3.033467, -0.325854 },
{ 0.004915, 0.002080, -0.005054, 0.036081, -0.463757, -0.036201, 1.085295, 0.536776, -0.991473, -0.276234, 0.540271, 0.150462, -1.195629, 0.995211, 0.636162, -1.417857, 0.767061, -0.688823, -0.372249, 0.924699, -0.753266, 0.705382, -4.850141, 13.612424, -34.254187, 46.679172, -29.450140, 12.051514, -3.023555 },
{ -0.007118, -0.000824, 0.017669, -0.020610, 0.962653, 0.709670, -0.553217, -0.911685, 0.875609, 0.972938, -1.492330, -1.003986, 1.690226, -0.531288, -0.982026, 0.999770, -1.006497, 0.780991, -1.154842, 0.463635, 0.096339, -0.820854, 1.573434, -3.996255, 13.149199, -29.450140, 34.192172, -21.031711, 6.959187 },
{ -0.000735, -0.014703, -0.011118, 0.018763, -0.633115, -0.692046, 0.012787, 1.001032, 0.365331, -0.636752, 1.000853, 0.831374, -1.439925, -0.215175, 1.029303, -1.593013, 0.970724, 0.467974, 0.110200, 0.006961, -0.380864, -0.215747, -0.351352, 0.487576, -3.033467, 12.051514, -21.031711, 22.759745, -10.197353 },
{ -0.014939, -0.002548, 0.020330, 0.018654, -0.036378, 0.121383, 0.251070, 0.353029, -0.248684, 0.031429, -0.071186, -0.212706, 0.487552, 0.071037, -0.078738, 0.297410, -0.371202, 0.002604, -0.537729, 0.658035, -0.005764, -0.153002, -0.024005, -0.987861, -0.325854, -3.023555, 6.959187, -10.197353, 8.270414 } },

{ { 0.008079, 0.002836, -0.005105, -0.003058, -0.026175, 0.063759, 0.006499, 0.025586, -0.030492, 0.037653, -0.009354, -0.021330, 0.000562, -0.012923, -0.001455, 0.017192, -0.025761, 0.037635, -0.048793, 0.030529, -0.010124, 0.030000, -0.040415, 0.047910, -0.046554, 0.009245, 0.020862, 0.002650, -0.008098 },
{ 0.002836, 0.015646, -0.003412, -0.005923, -0.034076, 0.037677, 0.000665, 0.036736, -0.041625, 0.002899, 0.009973, -0.005417, -0.008081, 0.003614, -0.016248, -0.008752, 0.014092, 0.033341, -0.023520, -0.002747, -0.030443, 0.032712, -0.006581, 0.021447, -0.038886, 0.031829, -0.028380, 0.009355, 0.001667 },
{ -0.005105, -0.003412, 0.009348, 0.003305, 0.023879, -0.068246, 0.000320, -0.024507, 0.040669, -0.040744, -0.001990, 0.020808, 0.002542, 0.011564, -0.004890, -0.007281, 0.030647, -0.046295, 0.049607, -0.029079, 0.014802, -0.034487, 0.036594, -0.069994, 0.078041, -0.015534, -0.026344, 0.009495, 0.004721 },
{ -0.003058, -0.005923, 0.003305, 0.015381, 0.045917, -0.038954, 0.007794, -0.044511, 0.033132, 0.009598, 0.003788, -0.001352, 0.002576, -0.024054, 0.035488, 0.029122, -0.043010, -0.032070, 0.048849, -0.005706, -0.023563, 0.015731, -0.001923, -0.010675, 0.023392, -0.009874, 0.009677, -0.018558, 0.006694 },
{ -0.026175, -0.034076, 0.023879, 0.045917, 2.448857, -1.063873, 0.966932, -2.194891, 1.022212, -0.211914, 0.752841, -0.262939, -0.322613, 0.053341, 0.433963, -0.113220, -0.457965, 0.498059, -0.260765, -0.233156, 0.459307, -0.528702, 0.320023, 0.101944, -0.145279, 0.440517, -0.398050, 0.194801, -0.600911 },
{ 0.063759, 0.037677, -0.068246, -0.038954, -1.063873, 2.894152, -0.212066, 1.080848, -2.437248, 0.466020, -0.144009, -0.230744, -0.359823, 0.318895, 0.140567, -0.211826, -0.263545, 0.261470, -0.654072, 0.317387, -0.073709, 0.293878, -0.864089, 0.882700, -0.887235, -0.030750, 1.002975, -0.270721, 0.176413 },
{ 0.006499, 0.000665, 0.000320, 0.007794, 0.966932, -0.212066, 2.290658, -0.309453, 0.191537, -1.400957, -0.014605, -0.093786, -0.132040, 0.064191, 0.198066, 0.343661, -0.463788, -0.476303, 0.275142, -0.281761, 0.270054, -0.095463, 0.160893, -0.052697, -0.606486, 0.986076, -0.662736, 0.686975, -0.580689 },
{ 0.025586, 0.036736, -0.024507, -0.044511, -2.194891, 1.080848, -0.309453, 4.651799, -0.269007, -0.711460, -2.608668, 0.158505, 0.148683, 0.293882, -0.211127, -0.338615, 0.855030, -1.486435, 0.429638, 0.646830, -0.947150, 0.560782, -0.594352, 0.562147, -0.456563, -0.352388, 0.623146, -0.126422, 0.661323 },
{ -0.030492, -0.041625, 0.040669, 0.033132, 1.022212, -2.437248, 0.191537, -0.269007, 5.546548, 0.155752, -2.045819, -2.097243, 0.979367, 0.006127, -0.251632, -0.019552, 0.132582, -0.566869, 0.251861, 0.108696, 0.093685, -0.202933, 0.260333, -0.026242, -0.167774, 0.492478, -0.588208, 0.018653, 0.273189 },
{ 0.037653, 0.002899, -0.040744, 0.009598, -0.211914, 0.466020, -1.400957, -0.711460, 0.155752, 4.632492, 0.626601, -2.603973, -1.647434, 0.562578, 0.278923, -0.590242, -0.077780, 1.268804, -1.247347, 0.299471, 0.672976, -0.457006, -0.437715, 0.665777, -0.337143, -0.863282, 1.232603, -0.670346, 0.595851 },
{ -0.009354, 0.009973, -0.001990, 0.003788, 0.752841, -0.144009, -0.014605, -2.608668, -2.045819, 0.626601, 6.514843, 1.151253, -4.241079, -0.229987, 1.000331, 0.095446, -1.274684, 1.643095, 0.269509, -0.781963, 0.144592, 0.769906, -0.234526, -0.431277, 0.401399, 0.154110, -0.681671, 0.033721, 0.005476 },
{ -0.021330, -0.005417, 0.020808, -0.001352, -0.262939, -0.230744, -0.093786, 0.158505, -2.097243, -2.603973, 1.151253, 7.907417, -0.083903, -4.783683, 0.941759, 0.701594, -0.320515, 0.201361, 0.922089, -0.682129, -0.467657, 1.471368, -0.448265, -0.691226, 1.114242, -0.124419, -1.015892, -0.066009, -0.012445 },
{ 0.000562, -0.008081, 0.002542, 0.002576, -0.322613, -0.359823, -0.132040, 0.148683, 0.979367, -1.647434, -4.241079, -0.083903, 11.336674, -1.690972, -6.307809, 1.236095, 2.907283, -1.885339, 0.259180, 0.502342, 0.530553, 0.087320, 0.160395, 0.230219, 0.234488, -0.684409, -0.234896, 0.568659, -0.754190 },
{ -0.012923, 0.003614, 0.011564, -0.024054, 0.053341, 0.318895, 0.064191, 0.293882, 0.006127, 0.562578, -0.229987, -4.783683, -1.690972, 10.610984, -2.158664, -5.377065, 1.801226, 0.495515, -0.758824, 0.926012, 0.422549, -0.968903, 0.958367, -0.796019, 1.291789, -2.216054, 2.174850, -1.365215, 1.032218 },
{ -0.001455, -0.016248, -0.004890, 0.035488, 0.433963, 0.140567, 0.198066, -0.211127, -0.251632, 0.278923, 1.000331, 0.941759, -6.307809, -2.158664, 12.277461, -1.830967, -7.623868, 3.436937, 0.719476, -1.499145, -0.066541, 0.372288, -0.233578, -0.003044, -0.582160, 1.349237, 0.506643, -0.922090, 0.233135 },
{ 0.017192, -0.008752, -0.007281, 0.029122, -0.113220, -0.211826, 0.343661, -0.338615, -0.019552, -0.590242, 0.095446, 0.701594, 1.236095, -5.377065, -1.830967, 11.715772, -2.617286, -6.241646, 2.744863, 0.617533, -0.653884, -0.555182, 0.876268, -0.257413, -0.479227, 1.188972, -1.329256, 1.041416, -0.432035 },
{ -0.025761, 0.014092, 0.030647, -0.043010, -0.457965, -0.263545, -0.463788, 0.855030, 0.132582, -0.077780, -1.274684, -0.320515, 2.907283, 1.801226, -7.623868, -2.617286, 14.576880, -6.360145, -2.987523, 2.150010, 1.107829, -1.604474, 1.093982, -0.870916, 1.293926, -1.566963, -0.545712, 0.361918, 0.026190 },
{ 0.037635, 0.033341, -0.046295, -0.032070, 0.498059, 0.261470, -0.476303, -1.486435, -0.566869, 1.268804, 1.643095, 0.201361, -1.885339, 0.495515, 3.436937, -6.241646, -6.360145, 17.858775, -8.719902, -1.494800, 0.201043, 2.661933, -2.917306, 1.044902, -0.149944, 1.013157, -1.027715, 1.248211, -0.866636 },
{ -0.048793, -0.023520, 0.049607, 0.048849, -0.260765, -0.654072, 0.275142, 0.429638, 0.251861, -1.247347, 0.269509, 0.922089, 0.259180, -0.758824, 0.719476, 2.744863, -2.987523, -8.719902, 18.186122, -10.157915, 0.672851, -0.633115, 2.215180, -1.423682, 0.814687, 0.000253, 0.561374, -1.144330, 0.456357 },
{ 0.030529, -0.002747, -0.029079, -0.005706, -0.233156, 0.317387, -0.281761, 0.646830, 0.108696, 0.299471, -0.781963, -0.682129, 0.502342, 0.926012, -1.499145, 0.617533, 2.150010, -1.494800, -10.157915, 19.810002, -13.220506, 4.110101, -1.969310, 2.121685, -1.659755, -0.498819, 0.876596, -0.650943, 0.750655 },
{ -0.010124, -0.030443, 0.014802, -0.023563, 0.459307, -0.073709, 0.270054, -0.947150, 0.093685, 0.672976, 0.144592, -0.467657, 0.530553, 0.422549, -0.066541, -0.653884, 1.107829, 0.201043, 0.672851, -13.220506, 25.354291, -18.169904, 7.152657, -3.653387, 1.761404, -0.345953, -1.123611, 1.471484, -1.003218 },
{ 0.030000, 0.032712, -0.034487, 0.015731, -0.528702, 0.293878, -0.095463, 0.560782, -0.202933, -0.457006, 0.769906, 1.471368, 0.087320, -0.968903, 0.372288, -0.555182, -1.604474, 2.661933, -0.633115, 4.110101, -18.169904, 28.840175, -21.314643, 10.038752, -2.498874, -1.077147, 1.463984, -1.394625, 0.359752 },
{ -0.040415, -0.006581, 0.036594, -0.001923, 0.320023, -0.864089, 0.160893, -0.594352, 0.260333, -0.437715, -0.234526, -0.448265, 0.160395, 0.958367, -0.233578, 0.876268, 1.093982, -2.917306, 2.215180, -1.969310, 7.152657, -21.314643, 28.798928, -20.388912, 9.998563, -1.936399, -1.177450, 0.616378, -0.608296 },
{ 0.047910, 0.021447, -0.069994, -0.010675, 0.101944, 0.882700, -0.052697, 0.562147, -0.026242, 0.665777, -0.431277, -0.691226, 0.230219, -0.796019, -0.003044, -0.257413, -0.870916, 1.044902, -1.423682, 2.121685, -3.653387, 10.038752, -20.388912, 26.063341, -21.046579, 8.973661, -0.901512, -1.282299, 0.383013 },
{ -0.046554, -0.038886, 0.078041, 0.023392, -0.145279, -0.887235, -0.606486, -0.456563, -0.167774, -0.337143, 0.401399, 1.114242, 0.234488, 1.291789, -0.582160, -0.479227, 1.293926, -0.149944, 0.814687, -1.659755, 1.761404, -2.498874, 9.998563, -21.046579, 31.232746, -24.677860, 9.296938, -2.336277, -0.702313 },
{ 0.009245, 0.031829, -0.015534, -0.009874, 0.440517, -0.030750, 0.986076, -0.352388, 0.492478, -0.863282, 0.154110, -0.124419, -0.684409, -2.216054, 1.349237, 1.188972, -1.566963, 1.013157, 0.000253, -0.498819, -0.345953, -1.077147, -1.936399, 8.973661, -24.677860, 37.150882, -26.615319, 12.696375, -4.125138 },
{ 0.020862, -0.028380, -0.026344, 0.009677, -0.398050, 1.002975, -0.662736, 0.623146, -0.588208, 1.232603, -0.681671, -1.015892, -0.234896, 2.174850, 0.506643, -1.329256, -0.545712, -1.027715, 0.561374, 0.876596, -1.123611, 1.463984, -1.177450, -0.901512, 9.296938, -26.615319, 33.698795, -21.698769, 8.425268 },
{ 0.002650, 0.009355, 0.009495, -0.018558, 0.194801, -0.270721, 0.686975, -0.126422, 0.018653, -0.670346, 0.033721, -0.066009, 0.568659, -1.365215, -0.922090, 1.041416, 0.361918, 1.248211, -1.144330, -0.650943, 1.471484, -1.394625, 0.616378, -1.282299, -2.336277, 12.696375, -21.698769, 23.623816, -11.515009 },
{ -0.008098, 0.001667, 0.004721, 0.006694, -0.600911, 0.176413, -0.580689, 0.661323, 0.273189, 0.595851, 0.005476, -0.012445, -0.754190, 1.032218, 0.233135, -0.432035, 0.026190, -0.866636, 0.456357, 0.750655, -1.003218, 0.359752, -0.608296, 0.383013, -0.702313, -4.125138, 8.425268, -11.515009, 9.310982 } } };

static const double S_inv_mmsame[2][29][29] = { { { 0.033462, -0.014551, -0.028830, 0.012793, 0.020462, 0.046303, 0.003757, -0.020935, -0.002240, 0.008501, 0.002421, 0.010570, 0.011575, -0.059539, 0.059047, -0.012666, 0.004247, 0.010970, 0.007456, -0.029445, 0.037582, -0.016217, -0.007281, 0.017635, 0.021900, -0.048534, 0.022959, -0.018976, 0.010576 },
{ -0.014551, 0.035640, 0.012683, -0.011528, 0.003900, -0.034183, 0.006434, -0.013284, -0.014545, 0.012114, -0.010933, 0.007599, 0.009844, -0.035465, -0.005411, 0.016794, -0.010516, 0.000760, 0.002560, -0.009553, -0.005823, 0.030670, -0.027651, 0.004232, -0.018903, 0.028093, -0.033537, 0.012827, -0.025202 },
{ -0.028830, 0.012683, 0.032296, -0.013983, -0.020410, -0.039745, -0.003314, 0.029841, -0.016898, 0.004592, -0.013661, -0.014283, -0.007669, 0.062459, -0.065060, 0.022663, -0.006191, -0.017039, -0.007956, 0.034312, -0.043727, 0.014177, 0.020362, -0.037283, 0.003390, 0.032735, -0.018747, 0.015003, -0.008576 },
{ 0.012793, -0.011528, -0.013983, 0.035634, 0.003759, 0.034005, -0.043811, 0.033194, 0.019022, -0.046311, 0.018904, 0.012429, 0.001981, -0.009148, -0.001498, 0.006198, 0.037253, -0.040442, 0.033671, -0.033687, 0.055889, -0.053850, 0.036065, -0.016493, 0.032244, -0.050192, 0.036423, -0.020679, 0.020307 },
{ 0.020462, 0.003900, -0.020410, 0.003759, 8.008735, -4.599159, -0.864961, -0.300694, -0.239376, -0.291355, -0.278527, -0.219165, 0.781007, -0.177317, -0.767064, 0.224162, -0.462675, 0.343644, -0.244436, 0.283138, -0.420220, 0.251861, -0.010059, 0.150410, -0.440799, 0.534655, 0.035671, -0.214086, 0.004322 },
{ 0.046303, -0.034183, -0.039745, 0.034005, -4.599159, 13.158124, -6.247827, 0.005090, -1.517526, 0.114644, 0.029977, -0.877635, 0.557338, 0.132103, -0.616932, 0.046599, 0.020041, -0.239610, 0.613889, -0.463216, -0.463656, 0.503138, -0.988231, 0.739278, 0.504603, -0.354011, 0.038965, 0.156023, 0.249313 },
{ 0.003757, 0.006434, -0.003314, -0.043811, -0.864961, -6.247827, 16.326138, -8.171713, -0.850192, 0.004886, 0.485952, -0.127629, -0.647213, 0.027438, -0.437772, 1.229139, -0.860817, 0.915228, -0.787453, 0.231323, -0.103008, -1.037730, 0.691167, -0.021590, 0.476364, -0.014052, -0.200366, 0.408550, -0.148407 },
{ -0.020935, -0.013284, 0.029841, 0.033194, -0.300694, 0.005090, -8.171713, 22.730589, -12.737292, -0.440290, 0.052791, 1.652208, -2.384807, 1.782932, -0.724207, -0.605745, 1.013749, -1.014500, 1.253705, -0.881711, 0.115538, 0.166148, -0.149000, -0.236542, 0.416433, -0.255500, 0.716528, -0.259602, 0.063516 },
{ -0.002240, -0.014545, -0.016898, 0.019022, -0.239376, -1.517526, -0.850192, -12.737292, 31.496647, -17.618867, -0.170274, 2.133059, 1.953605, -3.079426, 2.802807, -2.418912, 2.198014, -0.729895, 0.051273, 0.103792, 1.322342, -0.530818, -0.264582, 0.581883, -1.361175, 0.711189, -0.466533, 0.330497, -0.332585 },
{ 0.008501, 0.012114, 0.004592, -0.046311, -0.291355, 0.114644, 0.004886, -0.440290, -17.618867, 37.507208, -22.697005, 2.208542, 2.524966, -1.429447, 0.442803, 1.030960, -0.960411, 0.948756, -0.121870, -0.039659, -0.058971, -0.023255, 0.089717, 0.405333, -0.368579, 0.652903, -0.586720, -0.282590, 0.259181 },
{ 0.002421, -0.010933, -0.013661, 0.018904, -0.278527, 0.029977, 0.485952, 0.052791, -0.170274, -22.697005, 44.256995, -29.005352, 4.639221, 4.555434, -4.307296, 2.608327, -1.387863, 1.117016, -1.226259, 1.246571, -1.210996, 0.947576, -0.379182, -1.382406, 1.513080, -1.343502, 1.369130, 0.073898, -0.205271 },
{ 0.010570, 0.007599, -0.014283, 0.012429, -0.219165, -0.877635, -0.127629, 1.652208, 2.133059, 2.208542, -29.005352, 49.993836, -33.790553, 7.481409, 3.672658, -4.045955, 2.594772, -1.314841, 0.596102, -0.077669, 0.297441, -0.123017, 0.395729, 0.515022, -0.309378, 0.500345, -0.847917, -0.124977, 0.117251 },
{ 0.011575, 0.009844, -0.007669, 0.001981, 0.781007, 0.557338, -0.647213, -2.384807, 1.953605, 2.524966, 4.639221, -33.790553, 52.914178, -38.143331, 12.350962, 0.831713, -3.682274, 2.676118, -0.008988, -1.487800, 1.853026, -1.100552, 0.033290, 0.055286, -0.327852, -0.272347, 0.636698, 0.099326, 0.206217 },
{ -0.059539, -0.035465, 0.062459, -0.009148, -0.177317, 0.132103, 0.027438, 1.782932, -3.079426, -1.429447, 4.555434, 7.481409, -38.143331, 59.906330, -44.013968, 14.129531, 0.793439, -3.697105, 1.358960, 0.631070, -1.937771, 1.429093, 0.153922, -0.759442, 0.434532, -0.038352, -0.439913, 0.045129, 0.069156 },
{ 0.059047, -0.005411, -0.065060, -0.001498, -0.767064, -0.616932, -0.437772, -0.724207, 2.802807, 0.442803, -4.307296, 3.672658, 12.350962, -44.013968, 60.810560, -43.624546, 16.724502, -2.294556, -0.100902, 0.006050, 0.974439, -0.743616, -0.500420, 0.817761, -0.548047, 0.471005, -0.066564, 0.328751, -0.834797 },
{ -0.012666, 0.016794, 0.022663, 0.006198, 0.224162, 0.046599, 1.229139, -0.605745, -2.418912, 1.030960, 2.608327, -4.045955, 0.831713, 14.129531, -43.624546, 63.928809, -50.501964, 22.659044, -7.040984, 1.197929, 0.203452, -1.346073, 2.141168, -1.745110, 1.193942, -0.430291, -0.021187, -0.619987, 0.597993 },
{ 0.004247, -0.010516, -0.006191, 0.037253, -0.462675, 0.020041, -0.860817, 1.013749, 2.198014, -0.960411, -1.387863, 2.594772, -3.682274, 0.793439, 16.724502, -50.501964, 69.860481, -52.753022, 23.837441, -7.269122, 1.220463, 1.901485, -2.413937, 1.880170, -1.446503, 0.569443, 0.122642, 0.332200, -0.039315 },
{ 0.010970, 0.000760, -0.017039, -0.040442, 0.343644, -0.239610, 0.915228, -1.014500, -0.729895, 0.948756, 1.117016, -1.314841, 2.676118, -3.697105, -2.294556, 22.659044, -52.753022, 67.090425, -47.678529, 21.339932, -8.704411, 2.442114, -0.250666, -0.821032, 1.079727, -0.635251, 0.198272, 0.070062, -0.171229 },
{ 0.007456, 0.002560, -0.007956, 0.033671, -0.244436, 0.613889, -0.787453, 1.253705, 0.051273, -0.121870, -1.226259, 0.596102, -0.008988, 1.358960, -0.100902, -7.040984, 23.837441, -47.678529, 55.358461, -38.034055, 20.744364, -10.266027, 4.963781, -2.686256, 1.034158, -1.077395, 0.817648, -0.573759, 0.337584 },
{ -0.029445, -0.009553, 0.034312, -0.033687, 0.283138, -0.463216, 0.231323, -0.881711, 0.103792, -0.039659, 1.246571, -0.077669, -1.487800, 0.631070, 0.006050, 1.197929, -7.269122, 21.339932, -38.034055, 43.115055, -32.865718, 20.168257, -11.528642, 6.182571, -3.436689, 2.575091, -2.041430, 1.069048, -0.197988 },
{ 0.037582, -0.005823, -0.043727, 0.055889, -0.420220, -0.463656, -0.103008, 0.115538, 1.322342, -0.058971, -1.210996, 0.297441, 1.853026, -1.937771, 0.974439, 0.203452, 1.220463, -8.704411, 20.744364, -32.865718, 38.445393, -31.261728, 20.793642, -11.454550, 4.778382, -3.496628, 2.378650, -0.964957, -0.168618 },
{ -0.016217, 0.030670, 0.014177, -0.053850, 0.251861, 0.503138, -1.037730, 0.166148, -0.530818, -0.023255, 0.947576, -0.123017, -1.100552, 1.429093, -0.743616, -1.346073, 1.901485, 2.442114, -10.266027, 20.168257, -31.261728, 37.684138, -32.182998, 18.333545, -7.808281, 3.961142, -3.115798, 0.917355, 0.001684 },
{ -0.007281, -0.027651, 0.020362, 0.036065, -0.010059, -0.988231, 0.691167, -0.149000, -0.264582, 0.089717, -0.379182, 0.395729, 0.033290, 0.153922, -0.500420, 2.141168, -2.413937, -0.250666, 4.963781, -11.528642, 20.793642, -32.182998, 41.892906, -32.724600, 16.030658, -7.938863, 3.757891, -1.672389, -0.235635 },
{ 0.017635, 0.004232, -0.037283, -0.016493, 0.150410, 0.739278, -0.021590, -0.236542, 0.581883, 0.405333, -1.382406, 0.515022, 0.055286, -0.759442, 0.817761, -1.745110, 1.880170, -0.821032, -2.686256, 6.182571, -11.454550, 18.333545, -32.724600, 41.117159, -27.984423, 15.292174, -6.906620, 2.476502, -0.497266 },
{ 0.021900, -0.018903, 0.003390, 0.032244, -0.440799, 0.504603, 0.476364, 0.416433, -1.361175, -0.368579, 1.513080, -0.309378, -0.327852, 0.434532, -0.548047, 1.193942, -1.446503, 1.079727, 1.034158, -3.436689, 4.778382, -7.808281, 16.030658, -27.984423, 31.413749, -21.842355, 10.732214, -4.264773, 1.488739 },
{ -0.048534, 0.028093, 0.032735, -0.050192, 0.534655, -0.354011, -0.014052, -0.255500, 0.711189, 0.652903, -1.343502, 0.500345, -0.272347, -0.038352, 0.471005, -0.430291, 0.569443, -0.635251, -1.077395, 2.575091, -3.496628, 3.961142, -7.938863, 15.292174, -21.842355, 23.523417, -14.665377, 6.545704, -2.609895 },
{ 0.022959, -0.033537, -0.018747, 0.036423, 0.035671, 0.038965, -0.200366, 0.716528, -0.466533, -0.586720, 1.369130, -0.847917, 0.636698, -0.439913, -0.066564, -0.021187, 0.122642, 0.198272, 0.817648, -2.041430, 2.378650, -3.115798, 3.757891, -6.906620, 10.732214, -14.665377, 16.004447, -9.913745, 3.280364 },
{ -0.018976, 0.012827, 0.015003, -0.020679, -0.214086, 0.156023, 0.408550, -0.259602, 0.330497, -0.282590, 0.073898, -0.124977, 0.099326, 0.045129, 0.328751, -0.619987, 0.332200, 0.070062, -0.573759, 1.069048, -0.964957, 0.917355, -1.672389, 2.476502, -4.264773, 6.545704, -9.913745, 11.899649, -5.753067 },
{ 0.010576, -0.025202, -0.008576, 0.020307, 0.004322, 0.249313, -0.148407, 0.063516, -0.332585, 0.259181, -0.205271, 0.117251, 0.206217, 0.069156, -0.834797, 0.597993, -0.039315, -0.171229, 0.337584, -0.197988, -0.168618, 0.001684, -0.235635, -0.497266, 1.488739, -2.609895, 3.280364, -5.753067, 5.248876 } },

{ { 0.011390, -0.004958, -0.008929, 0.002048, 0.007703, 0.023328, 0.017113, 0.017048, -0.024487, 0.006063, 0.006865, 0.015886, 0.008667, -0.036810, 0.000855, 0.027998, -0.009573, 0.013205, 0.004407, -0.006110, 0.010694, -0.010403, -0.004768, 0.007349, 0.003514, -0.003379, 0.004051, -0.006923, 0.003157 },
{ -0.004958, 0.038624, 0.001840, -0.009613, -0.012125, 0.017310, 0.007427, -0.048604, 0.024075, -0.005235, 0.013227, -0.025435, -0.025366, 0.058119, -0.040856, -0.028224, 0.087083, -0.048065, -0.034797, 0.045302, -0.012159, -0.009619, 0.038914, -0.032188, -0.007951, -0.006074, -0.004045, -0.011869, -0.009913 },
{ -0.008929, 0.001840, 0.011276, -0.002713, -0.006052, -0.016917, -0.018055, -0.020594, 0.031129, -0.007375, -0.007219, -0.017505, 0.007824, 0.022522, 0.000754, -0.015444, -0.007246, 0.000378, -0.008347, -0.002512, -0.000490, 0.006414, 0.001845, -0.001278, -0.003952, -0.002704, 0.007790, -0.002372, -0.001535 },
{ 0.002048, -0.009613, -0.002713, 0.026107, 0.006211, -0.024819, 0.003500, 0.017600, -0.007772, 0.007810, 0.002247, -0.014381, 0.045287, -0.041907, -0.002640, 0.047471, -0.062965, 0.056121, -0.036899, 0.038647, -0.038147, 0.019924, -0.000989, -0.007165, 0.014701, 0.010253, -0.017273, 0.015988, 0.011940 },
{ 0.007703, -0.012125, -0.006052, 0.006211, 3.577104, -0.660789, -1.447106, 0.385903, -0.459589, -0.086780, 0.032298, -0.029230, 0.259733, -0.062756, -0.213558, 0.104945, -0.817063, 0.352629, 0.237328, 0.138384, -0.025761, -0.263952, 0.436272, -0.366619, 0.487133, -0.344900, 0.292194, -0.117874, 0.027779 },
{ 0.023328, 0.017310, -0.016917, -0.024819, -0.660789, 5.450162, -0.851939, -2.641787, -0.016680, 0.090476, 0.000106, -0.694211, 0.429045, -0.082604, -0.202943, -0.020097, -0.413865, 0.377068, -0.094064, 0.388583, -0.251419, 0.006059, -0.311433, 0.246818, -0.015185, 0.187234, -0.231858, 0.300024, -0.099084 },
{ 0.017113, 0.007427, -0.018055, 0.003500, -1.447106, -0.851939, 6.137726, -1.580047, -2.289658, -0.200040, 0.435252, 0.378816, -0.218753, -0.427396, 0.228923, -0.629597, 1.273924, -0.513520, -0.175126, 0.056152, -0.242480, -0.041048, -0.403587, 0.457102, -0.017818, 0.228613, 0.044864, 0.151311, -0.057856 },
{ 0.017048, -0.048604, -0.020594, 0.017600, 0.385903, -2.641787, -1.580047, 9.259518, -3.248436, -2.083207, -0.081395, 1.013855, 0.115051, -1.070445, 0.023189, 1.543235, -1.820094, 1.275022, 0.068253, -0.495361, 0.536379, -0.669436, 0.374897, -0.169769, 0.559480, -0.257923, -0.049079, 0.242917, -0.291891 },
{ -0.024487, 0.024075, 0.031129, -0.007772, -0.459589, -0.016680, -2.289658, -3.248436, 12.341629, -3.985392, -2.582360, -0.122490, 0.753770, 1.014038, -1.280464, 0.152650, 0.419448, 0.332711, -0.192926, 0.406932, -0.318268, 0.433712, -0.550594, 0.869533, -1.070569, 0.303515, 0.368124, -0.474776, 0.258710 },
{ 0.006063, -0.005235, -0.007375, 0.007810, -0.086780, 0.090476, -0.200040, -2.083207, -3.985392, 12.445791, -5.282347, -1.920489, -0.215700, 1.833452, -0.001207, -0.921108, 1.099805, -0.695683, 0.307183, -0.250726, 0.719469, -0.451458, 0.576268, -0.758677, -0.103470, 0.209081, -0.067931, -0.031412, 0.177979 },
{ 0.006865, 0.013227, -0.007219, 0.002247, 0.032298, 0.000106, 0.435252, -0.081395, -2.582360, -5.282347, 13.553644, -6.182097, -0.559472, -0.339582, 1.095614, -0.658914, 0.635874, -0.570740, -0.329484, 0.758933, -0.643536, 0.219421, 0.431729, -0.731613, 0.930843, -0.437991, -0.011669, 0.119863, -0.187897 },
{ 0.015886, -0.025435, -0.017505, -0.014381, -0.029230, -0.694211, 0.378816, 1.013855, -0.122490, -1.920489, -6.182097, 17.631172, -12.447871, 2.537617, -0.236460, -0.046096, -0.019710, 0.910677, -0.013201, -1.358557, 1.154403, -0.526021, 0.538319, -0.388932, 0.205460, -0.275722, 0.017686, 0.190109, 0.158867 },
{ 0.008667, -0.025366, 0.007824, 0.045287, 0.259733, 0.429045, -0.218753, 0.115051, 0.753770, -0.215700, -0.559472, -12.447871, 26.886810, -19.781373, 4.393790, 2.615895, -3.040057, 1.647466, -0.430920, 0.653411, -0.669696, 0.190150, -0.315470, 0.921452, -0.876086, 0.914461, -0.507028, 0.094392, 0.025760 },
{ -0.036810, 0.058119, 0.022522, -0.041907, -0.062756, -0.082604, -0.427396, -1.070445, 1.014038, 1.833452, -0.339582, 2.537617, -19.781373, 32.650620, -20.850729, 2.831469, 3.172101, -1.701279, -0.084955, 0.055878, 0.641926, -0.314180, 0.110932, -0.773936, 0.622641, -0.789618, 0.951398, -0.349180, -0.334801 },
{ 0.000855, -0.040856, 0.000754, -0.002640, -0.213558, -0.202943, 0.228923, 0.023189, -1.280464, -0.001207, 1.095614, -0.236460, 4.393790, -20.850729, 33.065564, -22.436977, 5.999585, -1.110082, 0.682297, 0.100520, -1.117879, 1.681917, -0.941646, 1.168051, -0.876377, 0.763554, -1.011208, -0.138678, 0.291257 },
{ 0.027998, -0.028224, -0.015444, 0.047471, 0.104945, -0.020097, -0.629597, 1.543235, 0.152650, -0.921108, -0.658914, -0.046096, 2.615895, 2.831469, -22.436977, 37.926288, -29.180042, 10.638102, -1.252268, -0.338527, 0.635089, -1.057670, -0.210918, -0.070468, 0.272935, 0.193447, -0.045633, 0.792800, -0.561824 },
{ -0.009573, 0.087083, -0.007246, -0.062965, -0.817063, -0.413865, 1.273924, -1.820094, 0.419448, 1.099805, 0.635874, -0.019710, -3.040057, 3.172101, 5.999585, -29.180042, 45.493971, -32.872866, 11.166458, -2.109162, -0.053101, -0.251325, 1.721665, -1.492116, 1.003895, -1.398927, 1.268973, -0.832323, 0.786461 },
{ 0.013205, -0.048065, 0.000378, 0.056121, 0.352629, 0.377068, -0.513520, 1.275022, 0.332711, -0.695683, -0.570740, 0.910677, 1.647466, -1.701279, -1.110082, 10.638102, -32.872866, 46.820121, -31.846913, 11.433748, -3.007783, 1.135210, -0.593834, 0.408041, -0.688708, 1.297954, -1.037272, 0.316206, -0.833757 },
{ 0.004407, -0.034797, -0.008347, -0.036899, 0.237328, -0.094064, -0.175126, 0.068253, -0.192926, 0.307183, -0.329484, -0.013201, -0.430920, -0.084955, 0.682297, -1.252268, 11.166458, -31.846913, 39.955628, -25.925985, 12.013142, -5.707231, 1.686014, 0.431369, -0.631084, -0.447448, 0.391207, 0.366753, 0.452381 },
{ -0.006110, 0.045302, -0.002512, 0.038647, 0.138384, 0.388583, 0.056152, -0.495361, 0.406932, -0.250726, 0.758933, -1.358557, 0.653411, 0.055878, 0.100520, -0.338527, -2.109162, 11.433748, -25.925985, 31.551121, -22.967460, 13.349227, -6.356093, 0.540394, 0.633267, -0.254420, 0.418921, -0.838242, 0.070714 },
{ 0.010694, -0.012159, -0.000490, -0.038147, -0.025761, -0.251419, -0.242480, 0.536379, -0.318268, 0.719469, -0.643536, 1.154403, -0.669696, 0.641926, -1.117879, 0.635089, -0.053101, -3.007783, 12.013142, -22.967460, 26.439399, -20.300447, 12.472302, -4.880033, 1.067376, -0.436147, -0.241944, 0.425530, -0.187440 },
{ -0.010403, -0.009619, 0.006414, 0.019924, -0.263952, 0.006059, -0.041048, -0.669436, 0.433712, -0.451458, 0.219421, -0.526021, 0.190150, -0.314180, 1.681917, -1.057670, -0.251325, 1.135210, -5.707231, 13.349227, -20.300447, 24.326637, -19.952582, 10.533688, -4.542155, 1.595771, -1.021434, -0.074867, 0.108836 },
{ -0.004768, 0.038914, 0.001845, -0.000989, 0.436272, -0.311433, -0.403587, 0.374897, -0.550594, 0.576268, 0.431729, 0.538319, -0.315470, 0.110932, -0.941646, -0.210918, 1.721665, -0.593834, 1.686014, -6.356093, 12.472302, -19.952582, 26.880160, -21.748297, 11.641296, -4.742616, 1.378525, -0.849610, -0.311311 },
{ 0.007349, -0.032188, -0.001278, -0.007165, -0.366619, 0.246818, 0.457102, -0.169769, 0.869533, -0.758677, -0.731613, -0.388932, 0.921452, -0.773936, 1.168051, -0.070468, -1.492116, 0.408041, 0.431369, 0.540394, -4.880033, 10.533688, -21.748297, 28.039718, -19.178907, 9.326646, -3.303807, 1.917241, -0.436834 },
{ 0.003514, -0.007951, -0.003952, 0.014701, 0.487133, -0.015185, -0.017818, 0.559480, -1.070569, -0.103470, 0.930843, 0.205460, -0.876086, 0.622641, -0.876377, 0.272935, 1.003895, -0.688708, -0.631084, 0.633267, 1.067376, -4.542155, 11.641296, -19.178907, 21.617155, -14.013479, 5.798821, -2.720334, 0.767909 },
{ -0.003379, -0.006074, -0.002704, 0.010253, -0.344900, 0.187234, 0.228613, -0.257923, 0.303515, 0.209081, -0.437991, -0.275722, 0.914461, -0.789618, 0.763554, 0.193447, -1.398927, 1.297954, -0.447448, -0.254420, -0.436147, 1.595771, -4.742616, 9.326646, -14.013479, 15.276476, -9.273273, 4.574861, -1.960876 },
{ 0.004051, -0.004045, 0.007790, -0.017273, 0.292194, -0.231858, 0.044864, -0.049079, 0.368124, -0.067931, -0.011669, 0.017686, -0.507028, 0.951398, -1.011208, -0.045633, 1.268973, -1.037272, 0.391207, 0.418921, -0.241944, -1.021434, 1.378525, -3.303807, 5.798821, -9.273273, 10.652320, -6.516444, 2.125587 },
{ -0.006923, -0.011869, -0.002372, 0.015988, -0.117874, 0.300024, 0.151311, 0.242917, -0.474776, -0.031412, 0.119863, 0.190109, 0.094392, -0.349180, -0.138678, 0.792800, -0.832323, 0.316206, 0.366753, -0.838242, 0.425530, -0.074867, -0.849610, 1.917241, -2.720334, 4.574861, -6.516444, 8.247733, -4.285349 },
{ 0.003157, -0.009913, -0.001535, 0.011940, 0.027779, -0.099084, -0.057856, -0.291891, 0.258710, 0.177979, -0.187897, 0.158867, 0.025760, -0.334801, 0.291257, -0.561824, 0.786461, -0.833757, 0.452381, 0.070714, -0.187440, 0.108836, -0.311311, -0.436834, 0.767909, -1.960876, 2.125587, -4.285349, 4.381247 } } };

static const double S_inv_ffdiff[2][29][29] = { { { 0.004807, 0.001041, -0.000332, 0.000503, 0.008001, 0.033731, 0.017257, 0.002023, -0.014717, 0.012958, 0.015730, -0.004209, -0.009856, -0.005631, 0.002235, 0.015237, -0.018855, 0.004688, -0.009489, 0.007584, 0.006960, 0.015101, -0.011698, 0.013579, -0.022009, 0.001053, 0.010133, 0.004073, -0.001776 },
{ 0.001041, 0.013128, 0.000436, -0.000097, -0.011489, 0.022832, 0.014554, 0.023217, -0.025253, -0.018675, 0.012095, 0.002419, 0.002158, 0.004221, -0.023172, -0.002287, 0.026839, -0.002056, -0.014017, -0.004542, 0.003712, -0.011835, 0.022023, -0.000027, -0.035666, 0.028527, -0.001228, 0.002805, -0.000783 },
{ -0.000332, 0.000436, 0.004608, 0.001130, -0.007747, -0.032788, -0.016668, -0.002379, 0.014177, -0.011545, -0.016182, 0.004526, 0.011021, 0.005613, -0.004298, -0.015442, 0.020083, -0.005946, 0.009867, -0.005873, -0.007804, -0.013885, 0.008660, -0.012428, 0.023009, -0.003544, -0.007813, -0.004571, 0.001296 },
{ 0.000503, -0.000097, 0.001130, 0.013373, 0.009814, -0.024206, -0.015837, -0.020990, 0.026749, 0.019616, -0.013208, -0.001133, -0.001195, -0.002251, 0.017662, -0.000800, -0.026237, 0.006165, 0.015185, -0.002436, -0.000932, 0.012958, -0.020709, -0.006637, 0.039524, -0.028379, 0.003720, -0.003664, 0.001052 },
{ 0.008001, -0.011489, -0.007747, 0.009814, 1.299688, -0.382907, 0.418835, -1.108033, 0.643307, 0.039914, 0.305025, -0.128170, -0.217360, -0.014887, 0.151924, 0.088827, -0.324368, 0.339735, -0.388998, 0.104559, 0.118029, 0.063382, 0.048460, -0.114921, 0.355888, -0.498120, 0.216955, -0.064004, -0.064113 },
{ 0.033731, 0.022832, -0.032788, -0.024206, -0.382907, 1.682349, 0.095315, 0.279816, -1.450906, 0.208159, 0.287466, -0.030511, -0.216696, 0.156193, 0.049968, 0.009324, -0.239667, -0.098493, -0.156261, 0.216918, 0.302769, -0.175512, -0.247683, 0.495918, -0.511115, 0.135629, 0.391691, -0.275089, 0.008902 },
{ 0.017257, 0.014554, -0.016668, -0.015837, 0.418835, 0.095315, 1.712914, -0.100604, -0.360767, -1.132668, 0.193373, 0.282727, 0.024453, -0.010147, -0.160479, 0.282696, -0.281568, -0.271633, 0.363019, -0.288983, 0.193547, 0.185966, -0.088158, 0.156107, -0.416328, 0.526279, -0.422631, 0.274963, -0.228043 },
{ 0.002023, 0.023217, -0.002379, -0.020990, -1.108033, 0.279816, -0.100604, 2.735979, -0.407224, -0.943207, -1.498463, 0.354683, 0.655699, 0.176041, -0.472403, -0.017507, 0.617326, -1.114216, 0.869971, 0.299420, -0.855368, 0.465258, -0.196217, 0.319758, -0.403585, 0.396880, -0.215758, 0.101193, -0.029419 },
{ -0.014717, -0.025253, 0.014177, 0.026749, 0.643307, -1.450906, -0.360767, -0.407224, 3.933707, 0.280813, -1.795829, -1.545804, 1.045787, 0.095478, 0.058675, -0.358016, 0.166784, 0.216086, -0.354463, 0.268250, -0.352313, 0.251954, 0.353682, -0.358214, 0.271253, -0.204186, 0.146545, -0.098274, 0.067439 },
{ 0.012958, -0.018675, -0.011545, 0.019616, 0.039914, 0.208159, -1.132668, -0.943207, 0.280813, 4.050917, 0.417569, -2.315191, -1.053845, 0.824720, 0.234314, -0.815857, -0.011552, 1.192877, -1.153747, 0.022307, 0.639358, 0.008718, -0.273987, -0.130274, 0.523213, -1.111853, 1.194144, -0.495129, 0.297114 },
{ 0.015730, 0.012095, -0.016182, -0.013208, 0.305025, 0.287466, 0.193373, -1.498463, -1.795829, 0.417569, 5.333950, 0.230010, -3.816081, 0.360107, 0.648264, 0.054732, -0.743811, 1.189867, -0.392588, -0.407750, 0.352869, 0.284017, -0.386382, 0.092360, -0.272267, 0.403314, -0.573557, 0.499155, -0.000085 },
{ -0.004209, 0.002419, 0.004526, -0.001133, -0.128170, -0.030511, 0.282727, 0.354683, -1.545804, -2.315191, 0.230010, 6.093951, -0.460282, -3.971416, 1.102739, 0.976912, -0.536904, -0.163118, 0.693351, -0.256654, -0.216162, 0.164949, 0.023267, -0.379350, -0.098440, 0.689790, -0.874374, 0.347167, -0.025783 },
{ -0.009856, 0.002158, 0.011021, -0.001195, -0.217360, -0.216696, 0.024453, 0.655699, 1.045787, -1.053845, -3.816081, -0.460282, 8.217867, -1.833041, -3.512000, 0.779279, 1.393236, -1.574743, 0.623794, 0.322807, 0.693037, -1.215705, 0.608614, 0.389188, -0.580191, -0.097812, 0.313799, 0.091412, -0.239506 },
{ -0.005631, 0.004221, 0.005613, -0.002251, -0.014887, 0.156193, -0.010147, 0.176041, 0.095478, 0.824720, 0.360107, -3.971416, -1.833041, 9.153886, -2.549987, -4.416768, 1.827160, 0.721461, -0.765646, 0.061388, 0.292525, 0.296800, -0.194625, -0.188901, 1.206934, -1.449180, 0.728278, 0.102757, -0.087040 },
{ 0.002235, -0.023172, -0.004298, 0.017662, 0.151924, 0.049968, -0.160479, -0.472403, 0.058675, 0.234314, 0.648264, 1.102739, -3.512000, -2.549987, 8.601721, -1.572709, -4.964243, 2.860638, 0.435001, -0.938580, -0.388712, 0.376342, 0.307362, -0.591381, 0.631933, 0.288346, -0.400106, -0.351342, 0.016113 },
{ 0.015237, -0.002287, -0.015442, -0.000800, 0.088827, 0.009324, 0.282696, -0.017507, -0.358016, -0.815857, 0.054732, 0.976912, 0.779279, -4.416768, -1.572709, 10.604859, -3.412614, -5.430183, 3.056108, 0.675873, -0.557938, -0.494566, 0.547294, 0.254873, -1.148820, 0.924857, -0.338561, -0.484955, 0.388426 },
{ -0.018855, 0.026839, 0.020083, -0.026237, -0.324368, -0.239667, -0.281568, 0.617326, 0.166784, -0.011552, -0.743811, -0.536904, 1.393236, 1.827160, -4.964243, -3.412614, 12.236507, -5.334466, -2.270214, 1.587695, -0.073779, 0.161203, -0.596804, -0.127676, 0.978960, -0.892336, 0.036009, 0.101846, 0.252875 },
{ 0.004688, -0.002056, -0.005946, 0.006165, 0.339735, -0.098493, -0.271633, -1.114216, 0.216086, 1.192877, 1.189867, -0.163118, -1.574743, 0.721461, 2.860638, -5.430183, -5.334466, 15.841790, -9.110863, -0.078982, 0.555159, 0.773000, -0.839496, -0.033418, 0.555044, 0.087558, -0.522499, 1.521671, -0.971612 },
{ -0.009489, -0.014017, 0.009867, 0.015185, -0.388998, -0.156261, 0.363019, 0.869971, -0.354463, -1.153747, -0.392588, 0.693351, 0.623794, -0.765646, 0.435001, 3.056108, -2.270214, -9.110863, 16.745571, -9.917563, 2.684418, -2.042442, 2.142667, -0.667228, -0.775708, 0.509495, 0.666778, -1.601504, 0.824614 },
{ 0.007584, -0.004542, -0.005873, -0.002436, 0.104559, 0.216918, -0.288983, 0.299420, 0.268250, 0.022307, -0.407750, -0.256654, 0.322807, 0.061388, -0.938580, 0.675873, 1.587695, -0.078982, -9.917563, 17.362070, -12.386442, 5.744762, -3.658337, 2.524110, -1.107641, -0.313217, 0.231299, 0.268754, -0.203486 },
{ 0.006960, 0.003712, -0.007804, -0.000932, 0.118029, 0.302769, 0.193547, -0.855368, -0.352313, 0.639358, 0.352869, -0.216162, 0.693037, 0.292525, -0.388712, -0.557938, -0.073779, 0.555159, 2.684418, -12.386442, 20.056680, -14.892712, 6.907052, -3.427429, 1.284341, 0.199897, -1.110527, 1.052746, -0.484323 },
{ 0.015101, -0.011835, -0.013885, 0.012958, 0.063382, -0.175512, 0.185966, 0.465258, 0.251954, 0.008718, 0.284017, 0.164949, -1.215705, 0.296800, 0.376342, -0.494566, 0.161203, 0.773000, -2.042442, 5.744762, -14.892712, 21.092515, -15.805933, 7.762761, -2.893726, 0.260679, 0.728976, -0.465660, 0.099868 },
{ -0.011698, 0.022023, 0.008660, -0.020709, 0.048460, -0.247683, -0.088158, -0.196217, 0.353682, -0.273987, -0.386382, 0.023267, 0.608614, -0.194625, 0.307362, 0.547294, -0.596804, -0.839496, 2.142667, -3.658337, 6.907052, -15.805933, 21.662605, -16.311291, 9.532270, -3.415653, 0.266551, -0.289256, -0.225777 },
{ 0.013579, -0.000027, -0.012428, -0.006637, -0.114921, 0.495918, 0.156107, 0.319758, -0.358214, -0.130274, 0.092360, -0.379350, 0.389188, -0.188901, -0.591381, 0.254873, -0.127676, -0.033418, -0.667228, 2.524110, -3.427429, 7.762761, -16.311291, 20.433371, -17.242790, 9.313055, -2.856662, 0.543764, 0.178354 },
{ -0.022009, -0.035666, 0.023009, 0.039524, 0.355888, -0.511115, -0.416328, -0.403585, 0.271253, 0.523213, -0.272267, -0.098440, -0.580191, 1.206934, 0.631933, -1.148820, 0.978960, 0.555044, -0.775708, -1.107641, 1.284341, -2.893726, 9.532270, -17.242790, 24.496690, -21.544022, 11.001264, -3.489482, -0.074350 },
{ 0.001053, 0.028527, -0.003544, -0.028379, -0.498120, 0.135629, 0.526279, 0.396880, -0.204186, -1.111853, 0.403314, 0.689790, -0.097812, -1.449180, 0.288346, 0.924857, -0.892336, 0.087558, 0.509495, -0.313217, 0.199897, 0.260679, -3.415653, 9.313055, -21.544022, 30.517990, -23.778876, 11.352138, -3.064259 },
{ 0.010133, -0.001228, -0.007813, 0.003720, 0.216955, 0.391691, -0.422631, -0.215758, 0.146545, 1.194144, -0.573557, -0.874374, 0.313799, 0.728278, -0.400106, -0.338561, 0.036009, -0.522499, 0.666778, 0.231299, -1.110527, 0.728976, 0.266551, -2.856662, 11.001264, -23.778876, 28.203685, -18.452318, 6.363860 },
{ 0.004073, 0.002805, -0.004571, -0.003664, -0.064004, -0.275089, 0.274963, 0.101193, -0.098274, -0.495129, 0.499155, 0.347167, 0.091412, 0.102757, -0.351342, -0.484955, 0.101846, 1.521671, -1.601504, 0.268754, 1.052746, -0.465660, -0.289256, 0.543764, -3.489482, 11.352138, -18.452318, 16.956248, -7.091806 },
{ -0.001776, -0.000783, 0.001296, 0.001052, -0.064113, 0.008902, -0.228043, -0.029419, 0.067439, 0.297114, -0.000085, -0.025783, -0.239506, -0.087040, 0.016113, 0.388426, 0.252875, -0.971612, 0.824614, -0.203486, -0.484323, 0.099868, -0.225777, 0.178354, -0.074350, -3.064259, 6.363860, -7.091806, 4.394754 } },

{ { 0.003958, 0.001844, -0.000706, -0.000253, 0.026433, 0.003351, 0.004665, -0.009531, 0.015463, 0.005601, 0.004258, 0.013034, -0.009613, -0.015016, 0.016811, 0.002214, -0.003992, -0.009809, -0.006991, 0.021489, -0.011266, 0.026250, -0.013759, 0.011220, -0.018153, -0.004564, 0.020155, -0.021710, 0.013157 },
{ 0.001844, 0.017094, -0.000275, -0.000346, 0.020787, -0.007330, 0.002565, -0.010743, 0.012651, -0.016315, -0.000306, 0.036384, -0.009916, -0.045161, 0.037993, 0.012142, 0.002485, -0.013095, -0.023185, 0.023792, -0.013807, 0.011958, 0.003776, -0.002854, -0.017773, 0.016005, 0.005398, -0.026326, 0.020458 },
{ -0.000706, -0.000275, 0.003971, 0.001811, -0.026372, -0.003869, -0.004797, 0.009986, -0.015958, -0.007337, -0.003597, -0.012586, 0.008652, 0.015970, -0.015920, -0.003916, 0.005424, 0.009399, 0.005862, -0.022846, 0.015130, -0.029281, 0.014879, -0.013204, 0.019782, 0.004265, -0.019471, 0.020585, -0.012006 },
{ -0.000253, -0.000346, 0.001811, 0.016862, -0.020042, 0.007646, -0.002608, 0.011675, -0.012428, 0.012617, -0.001966, -0.030445, 0.009267, 0.043061, -0.040053, -0.010901, 0.001536, 0.010796, 0.019693, -0.017916, 0.009799, -0.009503, -0.003264, 0.001298, 0.016201, -0.011500, -0.008190, 0.024293, -0.019282 },
{ 0.026433, 0.020787, -0.026372, -0.020042, 1.408424, -0.225002, -0.415901, -1.008958, 1.133051, 0.165461, -0.423087, 0.070606, 0.097911, -0.145725, 0.449779, -0.298632, -0.050658, -0.149321, 0.133157, -0.239805, 0.342016, 0.023051, 0.081680, 0.049347, 0.180538, -0.666618, 0.733547, -0.624606, 0.165459 },
{ 0.003351, -0.007330, -0.003869, 0.007646, -0.225002, 2.101813, 0.533591, -0.710768, -1.291676, 0.787659, 0.033303, -0.920471, 0.756798, 0.137464, -0.343827, 0.041898, -0.279423, 0.096373, -0.240509, 0.107341, 0.265365, -0.065496, 0.120121, -0.216054, 0.153074, -0.194957, 0.199390, -0.087366, -0.028483 },
{ 0.004665, 0.002565, -0.004797, -0.002608, -0.415901, 0.533591, 2.320188, 0.411691, -2.134586, -0.563006, 0.949106, -0.284782, -0.299397, 0.552629, -0.931218, 0.507938, 0.183468, -0.307553, -0.065670, 0.071378, -0.082325, 0.333740, -0.021858, -0.154039, -0.098047, 0.395066, -0.568896, 0.490545, -0.240771 },
{ -0.009531, -0.010743, 0.009986, 0.011675, -1.008958, -0.710768, 0.411691, 4.226787, -1.017732, -3.248535, 0.543297, 1.612018, -1.273228, 0.556107, -0.516413, 0.163375, 0.229316, -0.239673, 0.399700, 0.161638, -0.627417, 0.319049, 0.016964, -0.546754, 0.591444, 0.207085, -0.653829, 0.658754, -0.224364 },
{ 0.015463, 0.012651, -0.015958, -0.012428, 1.133051, -1.291676, -2.134586, -1.017732, 7.051265, 0.002161, -4.661145, 0.805274, 1.228367, -0.984483, 1.094001, -1.151128, 0.690501, -0.323472, 0.069668, 0.479148, -0.414786, -0.204741, 0.761326, -0.492417, 0.183209, -0.408869, 0.781412, -0.631064, 0.281174 },
{ 0.005601, -0.016315, -0.007337, 0.012617, 0.165461, 0.787659, -0.563006, -3.248535, 0.002161, 8.583217, -1.625018, -6.451819, 3.254375, 0.096952, 0.057802, -0.673265, -0.315320, 1.124905, -1.014303, 0.260601, 0.456235, -0.163059, 0.032698, 0.195560, -0.377403, -0.700025, 1.541473, -1.269821, 0.497552 },
{ 0.004258, -0.000306, -0.003597, -0.001966, -0.423087, 0.033303, 0.949106, 0.543297, -4.661145, -1.625018, 9.257329, -0.383174, -6.535617, 2.657543, -0.498543, 1.210088, -1.471745, 1.309038, -0.309916, -0.857702, 0.417924, 0.918772, -1.479993, 0.638048, -0.593549, 1.084867, -1.189637, 1.066916, -0.218840 },
{ 0.013034, 0.036384, -0.012586, -0.030445, 0.070606, -0.920471, -0.284782, 1.612018, 0.805274, -6.451819, -0.383174, 11.306318, -3.420805, -4.955961, 2.142670, 0.984511, 0.031956, -1.425342, 1.166707, 0.495104, -0.736037, -0.342115, 0.150824, 0.414547, -1.047045, 1.205273, -0.969255, 0.549091, 0.007890 },
{ -0.009613, -0.009916, 0.008652, 0.009267, 0.097911, 0.756798, -0.299397, -1.273228, 1.228367, 3.254375, -6.535617, -3.420805, 12.574998, -4.918548, -1.507730, -0.648689, 2.086423, -1.679384, 0.344161, 0.366830, 0.552158, -1.207808, 1.550104, -0.232154, -0.012084, -1.556908, 1.872240, -1.255504, 0.376927 },
{ -0.015016, -0.045161, 0.015970, 0.043061, -0.145725, 0.137464, 0.552629, 0.556107, -0.984483, 0.096952, 2.657543, -4.955961, -4.918548, 13.778642, -5.633226, -2.850138, 0.380007, 3.114805, -1.343370, -1.677325, 1.152457, 1.183727, -1.729095, 0.522462, 1.049126, -0.057092, -1.196995, 1.281853, -0.656022 },
{ 0.016811, 0.037993, -0.015920, -0.040053, 0.449779, -0.343827, -0.931218, -0.516413, 1.094001, 0.057802, -0.498543, 2.142670, -1.507730, -5.633226, 11.733426, -4.926028, -2.296076, -0.551823, 3.041389, -0.479945, -0.953791, -0.273859, 0.608515, -0.403812, 0.002140, 0.625646, -0.694788, 0.238249, 0.027231 },
{ 0.002214, 0.012142, -0.003916, -0.010901, -0.298632, 0.041898, 0.507938, 0.163375, -1.151128, -0.673265, 1.210088, 0.984511, -0.648689, -2.850138, -4.926028, 16.436215, -10.012312, 0.797691, -1.392964, 2.755584, -1.346217, 0.061782, 0.363486, -0.264222, 0.286869, -0.859818, 1.028064, -1.332346, 0.604395 },
{ -0.003992, 0.002485, 0.005424, 0.001536, -0.050658, -0.279423, 0.183468, 0.229316, 0.690501, -0.315320, -1.471745, 0.031956, 2.086423, 0.380007, -2.296076, -10.012312, 21.206130, -13.230127, 2.648629, -1.689085, 1.707945, 0.160455, -0.976415, 0.941142, -0.529120, 0.534727, -0.310180, 0.152875, -0.258836 },
{ -0.009809, -0.013095, 0.009399, 0.010796, -0.149321, 0.096373, -0.307553, -0.239673, -0.323472, 1.124905, 1.309038, -1.425342, -1.679384, 3.114805, -0.551823, 0.797691, -13.230127, 24.808364, -17.595021, 5.789378, -1.675375, 0.199181, 0.006960, -0.520368, 0.517387, -0.371678, 0.253731, 0.432547, -0.158805 },
{ -0.006991, -0.023185, 0.005862, 0.019693, 0.133157, -0.240509, -0.065670, 0.399700, 0.069668, -1.014303, -0.309916, 1.166707, 0.344161, -1.343370, 3.041389, -1.392964, 2.648629, -17.595021, 27.819111, -18.446342, 7.109196, -3.236218, 1.904505, -0.803307, 0.029716, 0.611737, -0.886909, 0.717299, -0.377454 },
{ 0.021489, 0.023792, -0.022846, -0.017916, -0.239805, 0.107341, 0.071378, 0.161638, 0.479148, 0.260601, -0.857702, 0.495104, 0.366830, -1.677325, -0.479945, 2.755584, -1.689085, 5.789378, -18.446342, 26.318533, -19.902798, 9.896007, -4.537761, 2.618292, -1.454926, -0.030332, 0.334292, -0.395001, 0.456133 },
{ -0.011266, -0.013807, 0.015130, 0.009799, 0.342016, 0.265365, -0.082325, -0.627417, -0.414786, 0.456235, 0.417924, -0.736037, 0.552158, 1.152457, -0.953791, -1.346217, 1.707945, -1.675375, 7.109196, -19.902798, 28.110510, -20.785090, 9.302981, -4.128808, 1.560806, -0.630306, 0.411576, 0.128760, -0.459529 },
{ 0.026250, 0.011958, -0.029281, -0.009503, 0.023051, -0.065496, 0.333740, 0.319049, -0.204741, -0.163059, 0.918772, -0.342115, -1.207808, 1.183727, -0.273859, 0.061782, 0.160455, 0.199181, -3.236218, 9.896007, -20.785090, 26.241772, -18.066025, 9.306251, -3.572732, 0.930835, -0.292151, -0.907210, 0.634855 },
{ -0.013759, 0.003776, 0.014879, -0.003264, 0.081680, 0.120121, -0.021858, 0.016964, 0.761326, 0.032698, -1.479993, 0.150824, 1.550104, -1.729095, 0.608515, 0.363486, -0.976415, 0.006960, 1.904505, -4.537761, 9.302981, -18.066025, 22.579772, -18.039969, 11.567444, -5.664862, 1.680085, 0.115857, -0.447224 },
{ 0.011220, -0.002854, -0.013204, 0.001298, 0.049347, -0.216054, -0.154039, -0.546754, -0.492417, 0.195560, 0.638048, 0.414547, -0.232154, 0.522462, -0.403812, -0.264222, 0.941142, -0.520368, -0.803307, 2.618292, -4.128808, 9.306251, -18.039969, 24.217627, -22.208405, 13.472047, -5.060037, 0.887211, -0.054053 },
{ -0.018153, -0.017773, 0.019782, 0.016201, 0.180538, 0.153074, -0.098047, 0.591444, 0.183209, -0.377403, -0.593549, -1.047045, -0.012084, 1.049126, 0.002140, 0.286869, -0.529120, 0.517387, 0.029716, -1.454926, 1.560806, -3.572732, 11.567444, -22.208405, 30.785605, -26.470953, 12.902280, -3.422781, -0.240777 },
{ -0.004564, 0.016005, 0.004265, -0.011500, -0.666618, -0.194957, 0.395066, 0.207085, -0.408869, -0.700025, 1.084867, 1.205273, -1.556908, -0.057092, 0.625646, -0.859818, 0.534727, -0.371678, 0.611737, -0.030332, -0.630306, 0.930835, -5.664862, 13.472047, -26.470953, 35.107662, -25.382876, 10.989110, -2.321919 },
{ 0.020155, 0.005398, -0.019471, -0.008190, 0.733547, 0.199390, -0.568896, -0.653829, 0.781412, 1.541473, -1.189637, -0.969255, 1.872240, -1.196995, -0.694788, 1.028064, -0.310180, 0.253731, -0.886909, 0.334292, 0.411576, -0.292151, 1.680085, -5.060037, 12.902280, -25.382876, 27.661763, -17.195327, 5.556906 },
{ -0.021710, -0.026326, 0.020585, 0.024293, -0.624606, -0.087366, 0.490545, 0.658754, -0.631064, -1.269821, 1.066916, 0.549091, -1.255504, 1.281853, 0.238249, -1.332346, 0.152875, 0.432547, 0.717299, -0.395001, 0.128760, -0.907210, 0.115857, 0.887211, -3.422781, 10.989110, -17.195327, 16.085061, -6.806024 },
{ 0.013157, 0.020458, -0.012006, -0.019282, 0.165459, -0.028483, -0.240771, -0.224364, 0.281174, 0.497552, -0.218840, 0.007890, 0.376927, -0.656022, 0.027231, 0.604395, -0.258836, -0.158805, -0.377454, 0.456133, -0.459529, 0.634855, -0.447224, -0.054053, -0.240777, -2.321919, 5.556906, -6.806024, 4.186116 } } };

static const double S_inv_mmdiff[2][29][29] = { { { 0.007206, -0.003076, 0.000177, 0.000097, 0.023690, -0.013025, 0.014097, 0.003972, -0.011058, -0.002039, 0.020823, -0.006990, -0.013005, 0.018834, -0.013469, 0.009119, -0.003283, 0.003434, -0.003607, 0.014143, -0.004281, -0.002241, -0.011362, 0.017392, -0.001666, -0.006854, 0.011985, -0.008114, 0.006971 },
{ -0.003076, 0.027201, -0.000139, -0.000403, -0.010538, 0.007357, 0.005973, -0.034473, 0.007851, 0.019087, -0.006980, -0.004523, 0.021734, -0.035613, 0.028701, -0.016982, 0.001511, 0.006340, -0.000981, -0.016840, 0.010645, -0.001673, -0.001156, -0.000236, -0.002912, 0.005338, -0.006448, 0.000244, -0.008078 },
{ 0.000177, -0.000139, 0.007178, -0.003025, -0.023926, 0.013555, -0.014622, -0.001253, 0.009643, 0.002412, -0.021037, 0.003941, 0.015781, -0.019480, 0.015108, -0.012858, 0.005995, -0.003304, 0.002248, -0.014661, 0.007400, -0.001548, 0.015570, -0.021636, 0.006139, 0.002941, -0.009148, 0.006471, -0.005756 },
{ 0.000097, -0.000403, -0.003025, 0.027579, 0.011051, -0.005023, -0.012356, 0.035044, 0.000214, -0.023093, 0.000182, 0.013333, -0.017964, 0.028192, -0.028761, 0.023478, -0.009665, -0.002706, 0.002316, 0.013767, -0.009171, 0.002331, -0.002726, 0.008307, -0.005573, -0.000330, 0.004824, 0.000390, 0.007100 },
{ 0.023690, -0.010538, -0.023926, 0.011051, 5.239284, -3.889290, -0.138371, 0.363373, 0.189966, -0.436135, 0.248420, 0.307138, -0.623386, 0.630628, -0.719631, 0.440518, -0.363164, 0.149756, 0.176262, 0.170595, -0.098928, -0.117206, 0.459703, -0.430362, 0.108855, 0.082880, 0.020579, -0.154332, 0.109098 },
{ -0.013025, 0.007357, 0.013555, -0.005023, -3.889290, 9.911530, -5.182556, -0.262297, -0.382386, 0.985617, -0.647632, -0.149443, 0.178696, -0.492692, 0.394038, -0.133862, -0.436506, 0.857240, -0.799669, 0.790710, -0.609477, 0.334948, -0.513351, 0.577690, -0.065325, 0.020857, -0.021295, 0.065290, 0.023968 },
{ 0.014097, 0.005973, -0.014622, -0.012356, -0.138371, -5.182556, 11.846923, -7.133381, 0.421989, -0.704057, 1.212071, -0.621799, 0.211887, -0.252602, -0.013705, 0.195584, 0.248320, -0.106099, -0.111481, -0.195745, 0.235616, -0.089035, -0.282303, 0.425151, -0.058495, 0.038715, -0.149297, 0.273490, -0.207035 },
{ 0.003972, -0.034473, -0.001253, 0.035044, 0.363373, -0.262297, -7.133381, 18.172474, -11.707116, 1.835508, -1.385573, 1.845467, -1.596864, 0.959569, -0.698832, 0.323083, -0.348211, -0.113307, 0.806924, -0.650696, 0.366167, -0.116724, -0.053717, -0.303261, 0.503939, -0.262679, 0.373828, -0.427372, 0.221619 },
{ -0.011058, 0.007851, 0.009643, 0.000214, 0.189966, -0.382386, 0.421989, -11.707116, 24.901556, -15.929446, 2.220994, -0.779243, 2.753122, -1.599810, 0.367765, -0.622408, 0.963095, -0.701406, 0.567802, -0.727845, 0.907475, -0.589010, 0.103507, 0.352945, -0.757634, 0.690130, -0.236801, 0.073216, -0.138199 },
{ -0.002039, 0.019087, 0.002412, -0.023093, -0.436135, 0.985617, -0.704057, 1.835508, -15.929446, 29.207707, -18.553387, 3.707746, 0.033834, 0.124307, 0.268154, -0.720264, 0.862707, -0.061687, 0.151377, -0.290202, 0.201740, -0.082890, -0.045071, 0.035366, 0.012650, -0.259576, 0.116658, 0.118873, -0.037468 },
{ 0.020823, -0.006980, -0.021037, 0.000182, 0.248420, -0.647632, 1.212071, -1.385573, 2.220994, -18.553387, 33.757303, -22.530030, 5.239953, 0.610529, -1.603510, 2.282300, -1.905122, 1.164671, -0.926030, 0.846698, -0.654627, 0.143186, 0.742957, -0.914058, 0.904374, -0.571710, 0.063835, 0.076982, 0.011463 },
{ -0.006990, -0.004523, 0.003941, 0.013333, 0.307138, -0.149443, -0.621799, 1.845467, -0.779243, 3.707746, -22.530030, 35.933128, -24.303978, 7.505913, 0.054988, -1.761843, 1.478554, -0.833213, 0.198872, 0.417405, -1.082554, 1.429755, -1.535885, 1.268079, -1.094482, 0.614942, 0.000759, -0.144760, -0.006629 },
{ -0.013005, 0.021734, 0.015781, -0.017964, -0.623386, 0.178696, 0.211887, -1.596864, 2.753122, 0.033834, 5.239953, -24.303978, 36.278054, -26.704300, 10.407649, -1.610351, -0.551143, 0.897604, -0.216993, -0.920657, 2.389098, -2.043242, 1.536772, -1.229275, 0.814846, -0.479385, 0.144009, -0.220093, 0.291413 },
{ 0.018834, -0.035613, -0.019480, 0.028192, 0.630628, -0.492692, -0.252602, 0.959569, -1.599810, 0.124307, 0.610529, 7.505913, -26.704300, 41.473388, -32.630795, 13.082856, -2.652936, 0.099253, -0.137761, 0.307669, -1.397162, 1.166236, -0.484739, 0.444245, -0.558606, 0.575771, -0.773112, 0.802127, -0.374070 },
{ -0.013469, 0.028701, 0.015108, -0.028761, -0.719631, 0.394038, -0.013705, -0.698832, 0.367765, 0.268154, -1.603510, 0.054988, 10.407649, -32.630795, 48.049672, -37.757917, 16.654818, -4.720929, 1.732309, 0.035856, -0.269482, -0.159089, 0.060998, -0.026439, 0.095406, -0.107028, 0.301870, -0.330647, 0.045812 },
{ 0.009119, -0.016982, -0.012858, 0.023478, 0.440518, -0.133862, 0.195584, 0.323083, -0.622408, -0.720264, 2.282300, -1.761843, -1.610351, 13.082856, -37.757917, 55.674807, -43.637321, 18.809361, -5.593171, 0.561986, 0.736930, -1.119150, 1.022684, -0.421989, 0.056800, -0.211859, 0.555028, -0.495137, 0.270551 },
{ -0.003283, 0.001511, 0.005995, -0.009665, -0.363164, -0.436506, 0.248320, -0.348211, 0.963095, 0.862707, -1.905122, 1.478554, -0.551143, -2.652936, 16.654818, -43.637321, 58.095414, -41.036407, 16.281465, -4.001341, 0.421723, 1.468001, -1.365302, 0.041379, 0.618993, -0.165679, -0.537862, 0.442076, -0.230334 },
{ 0.003434, 0.006340, -0.003304, -0.002706, 0.149756, 0.857240, -0.106099, -0.113307, -0.701406, -0.061687, 1.164671, -0.833213, 0.897604, 0.099253, -4.720929, 18.809361, -41.036407, 48.665925, -30.930294, 12.143613, -4.815548, 1.295228, -0.897208, 1.549074, -1.249234, 0.545271, 0.128239, -0.130525, 0.115087 },
{ -0.003607, -0.000981, 0.002248, 0.002316, 0.176262, -0.799669, -0.111481, 0.806924, 0.567802, 0.151377, -0.926030, 0.198872, -0.216993, -0.137761, 1.732309, -5.593171, 16.281465, -30.930294, 33.433390, -22.019097, 12.290487, -6.301381, 3.537614, -2.597432, 1.334519, -0.721878, 0.534019, -0.225064, -0.012790 },
{ 0.014143, -0.016840, -0.014661, 0.013767, 0.170595, 0.790710, -0.195745, -0.650696, -0.727845, -0.290202, 0.846698, 0.417405, -0.920657, 0.307669, 0.035856, 0.561986, -4.001341, 12.143613, -22.019097, 25.901996, -21.026439, 13.077100, -6.934975, 3.461310, -1.507931, 0.852230, -0.716798, 0.305871, -0.064757 },
{ -0.004281, 0.010645, 0.007400, -0.009171, -0.098928, -0.609477, 0.235616, 0.366167, 0.907475, 0.201740, -0.654627, -1.082554, 2.389098, -1.397162, -0.269482, 0.736930, 0.421723, -4.815548, 12.290487, -21.026439, 25.228245, -20.498341, 13.274022, -6.955632, 2.664467, -1.262871, 0.718124, -0.212390, 0.011086 },
{ -0.002241, -0.001673, -0.001548, 0.002331, -0.117206, 0.334948, -0.089035, -0.116724, -0.589010, -0.082890, 0.143186, 1.429755, -2.043242, 1.166236, -0.159089, -1.119150, 1.468001, 1.295228, -6.301381, 13.077100, -20.498341, 24.249959, -20.675182, 12.196764, -5.402694, 2.074389, -0.967160, 0.405459, -0.202586 },
{ -0.011362, -0.001156, 0.015570, -0.002726, 0.459703, -0.513351, -0.282303, -0.053717, 0.103507, -0.045071, 0.742957, -1.535885, 1.536772, -0.484739, 0.060998, 1.022684, -1.365302, -0.897208, 3.537614, -6.934975, 13.274022, -20.675182, 25.718593, -21.302649, 12.054537, -5.281914, 1.743314, -0.943075, 0.244798 },
{ 0.017392, -0.000236, -0.021636, 0.008307, -0.430362, 0.577690, 0.425151, -0.303261, 0.352945, 0.035366, -0.914058, 1.268079, -1.229275, 0.444245, -0.026439, -0.421989, 0.041379, 1.549074, -2.597432, 3.461310, -6.955632, 12.196764, -21.302649, 25.979782, -19.437215, 10.249128, -3.860991, 1.807529, -0.459066 },
{ -0.001666, -0.002912, 0.006139, -0.005573, 0.108855, -0.065325, -0.058495, 0.503939, -0.757634, 0.012650, 0.904374, -1.094482, 0.814846, -0.558606, 0.095406, 0.056800, 0.618993, -1.249234, 1.334519, -1.507931, 2.664467, -5.402694, 12.054537, -19.437215, 20.490707, -14.374194, 6.816026, -2.939905, 0.957523 },
{ -0.006854, 0.005338, 0.002941, -0.000330, 0.082880, 0.020857, 0.038715, -0.262679, 0.690130, -0.259576, -0.571710, 0.614942, -0.479385, 0.575771, -0.107028, -0.211859, -0.165679, 0.545271, -0.721878, 0.852230, -1.262871, 2.074389, -5.281914, 10.249128, -14.374194, 14.295059, -9.003776, 4.313202, -1.395451 },
{ 0.011985, -0.006448, -0.009148, 0.004824, 0.020579, -0.021295, -0.149297, 0.373828, -0.236801, 0.116658, 0.063835, 0.000759, 0.144009, -0.773112, 0.301870, 0.555028, -0.537862, 0.128239, 0.534019, -0.716798, 0.718124, -0.967160, 1.743314, -3.860991, 6.816026, -9.003776, 8.717036, -5.640008, 1.893748 },
{ -0.008114, 0.000244, 0.006471, 0.000390, -0.154332, 0.065290, 0.273490, -0.427372, 0.073216, 0.118873, 0.076982, -0.144760, -0.220093, 0.802127, -0.330647, -0.495137, 0.442076, -0.130525, -0.225064, 0.305871, -0.212390, 0.405459, -0.943075, 1.807529, -2.939905, 4.313202, -5.640008, 5.500061, -2.465390 },
{ 0.006971, -0.008078, -0.005756, 0.007100, 0.109098, 0.023968, -0.207035, 0.221619, -0.138199, -0.037468, 0.011463, -0.006629, 0.291413, -0.374070, 0.045812, 0.270551, -0.230334, 0.115087, -0.012790, -0.064757, 0.011086, -0.202586, 0.244798, -0.459066, 0.957523, -1.395451, 1.893748, -2.465390, 1.693482 } },

{ { 0.004883, -0.004361, 0.000802, -0.000488, 0.020014, 0.013197, -0.005025, 0.020033, -0.017020, 0.009387, 0.000327, 0.005810, -0.004621, 0.000258, -0.005173, 0.011993, -0.011266, 0.010555, 0.007358, -0.009424, 0.016325, -0.014237, 0.003483, 0.008437, -0.008099, 0.011456, 0.000352, -0.003597, 0.001283 },
{ -0.004361, 0.034607, -0.000587, -0.000786, -0.011623, 0.010749, 0.003475, -0.008311, -0.019502, 0.007462, -0.019508, 0.039672, -0.049700, 0.018935, 0.022913, -0.040576, 0.034764, -0.030762, 0.018502, -0.010989, -0.021498, 0.026436, -0.032251, 0.020587, 0.002902, -0.020594, 0.017760, -0.006191, -0.005583 },
{ 0.000802, -0.000587, 0.004869, -0.003771, -0.019595, -0.013286, 0.006653, -0.023260, 0.017310, -0.010686, -0.000084, -0.001409, 0.002702, -0.000724, 0.007008, -0.018315, 0.020776, -0.012318, -0.014417, 0.017544, -0.018580, 0.011137, 0.000084, -0.011554, 0.009327, -0.012908, 0.002356, 0.002003, -0.000026 },
{ -0.000488, -0.000786, -0.003771, 0.033626, 0.011147, -0.014428, -0.000825, 0.014732, 0.010764, -0.008310, 0.019040, -0.041285, 0.056070, -0.019280, -0.018221, 0.026648, -0.020605, 0.020468, -0.004943, -0.001019, 0.022112, -0.019715, 0.026135, -0.018992, -0.002737, 0.021849, -0.019529, 0.006450, 0.005440 },
{ 0.020014, -0.011623, -0.019595, 0.011147, 2.986080, -0.945993, -1.089825, 0.407187, -0.315501, 0.291379, -0.279966, 0.276263, 0.053690, -0.444786, 0.531322, -0.171116, -0.870137, 1.046749, -0.582449, 0.543318, -0.177844, -0.034162, 0.008613, 0.210133, -0.003172, -0.122755, 0.047975, 0.039168, 0.025377 },
{ 0.013197, 0.010749, -0.013286, -0.014428, -0.945993, 4.269197, -1.168115, -1.621162, 0.353694, -0.061215, 0.155696, -0.754246, 1.143604, -0.947990, 0.166590, 0.095693, -0.228511, 0.222327, 0.368895, -0.255929, -0.036958, 0.222146, -0.482430, 0.486236, -0.050191, -0.087152, 0.144588, -0.052353, 0.122285 },
{ -0.005025, 0.003475, 0.006653, -0.000825, -1.089825, -1.168115, 5.273698, -1.573358, -1.436023, 0.081875, -0.041118, 0.290540, -0.621681, 0.633504, -0.330917, -0.309108, 0.963896, -0.555663, 0.091603, -0.167593, 0.126172, 0.105577, -0.541373, 0.376231, -0.141904, 0.114658, -0.002029, 0.170266, -0.117376 },
{ 0.020033, -0.008311, -0.023260, 0.014732, 0.407187, -1.621162, -1.573358, 7.939400, -3.853826, -1.375399, 0.277973, 0.683842, -0.239048, -0.184291, -0.511963, 1.539655, -1.637757, 0.972501, -0.275640, -0.080839, 0.683032, -0.835008, 0.637372, -0.543649, 0.250292, 0.212825, -0.159783, -0.006302, -0.098116 },
{ -0.017020, -0.019502, 0.017310, 0.010764, -0.315501, 0.353694, -1.436023, -3.853826, 11.238788, -4.669830, -1.978020, 0.240437, 1.220062, -0.377411, -0.227961, -0.511522, 0.843698, -0.080988, -0.212572, 0.091604, -0.119054, -0.036783, 0.136846, 0.489365, -0.576393, 0.140201, 0.321041, -0.442412, 0.135440 },
{ 0.009387, 0.007462, -0.010686, -0.008310, 0.291379, -0.061215, 0.081875, -1.375399, -4.669830, 12.031673, -5.549039, -1.507639, 0.031826, 1.313507, 0.051671, -1.013745, 1.464174, -1.383198, 1.033858, -0.694719, 0.513463, -0.450489, 0.164105, 0.405918, -0.629482, 0.578744, -0.424661, 0.179779, -0.010812 },
{ 0.000327, -0.019508, -0.000084, 0.019040, -0.279966, 0.155696, -0.041118, 0.277973, -1.978020, -5.549039, 13.394278, -6.561837, -0.470876, -0.113810, 1.503552, -0.781890, -0.252180, 0.394456, -0.607740, 0.943582, -0.829546, 0.634932, 0.068096, -0.812004, 0.551871, -0.220498, -0.034634, 0.143432, -0.094035 },
{ 0.005810, 0.039672, -0.001409, -0.041285, 0.276263, -0.754246, 0.290540, 0.683842, 0.240437, -1.507639, -6.561837, 15.980180, -10.926926, 2.913240, -1.615870, 1.017600, -0.307060, 0.232537, -0.033855, -0.245600, 0.474839, -0.178582, 0.283697, -0.317202, 0.354693, -0.317594, 0.083704, -0.340271, 0.303789 },
{ -0.004621, -0.049700, 0.002702, 0.056070, 0.053690, 1.143604, -0.621681, -0.239048, 1.220062, 0.031826, -0.470876, -10.926926, 22.264324, -16.309631, 4.815027, 0.758400, -1.509061, 1.263218, -0.679723, 0.255463, 0.317979, -0.791214, 0.547253, 0.032997, -0.345023, 0.335715, -0.068482, 0.461195, -0.199655 },
{ 0.000258, 0.018935, -0.000724, -0.019280, -0.444786, -0.947990, 0.633504, -0.184291, -0.377411, 1.313507, -0.113810, 2.913240, -16.309631, 27.484545, -19.355376, 3.300724, 2.391354, -0.866204, 0.280060, -0.798976, -0.121813, 1.128646, -1.314567, 0.538617, 0.259503, -0.488494, 0.101022, -0.106854, -0.100918 },
{ -0.005173, 0.022913, 0.007008, -0.018221, 0.531322, 0.166590, -0.330917, -0.511963, -0.227961, 0.051671, 1.503552, -1.615870, 4.815027, -19.355376, 31.217667, -21.593702, 5.605209, -0.801604, 0.814746, 0.627821, -1.154643, 0.537197, 0.042186, 0.421985, -1.072653, 0.992325, -0.252294, -0.450161, 0.429588 },
{ 0.011993, -0.040576, -0.018315, 0.026648, -0.171116, 0.095693, -0.309108, 1.539655, -0.511522, -1.013745, -0.781890, 1.017600, 0.758400, 3.300724, -21.593702, 37.140792, -27.713953, 9.640807, -2.352345, 0.316899, 0.454358, -0.556120, 0.154607, -0.530967, 0.792658, -0.515987, 0.241105, 0.429029, -0.436493 },
{ -0.011266, 0.034764, 0.020776, -0.020605, -0.870137, -0.228511, 0.963896, -1.637757, 0.843698, 1.464174, -0.252180, -0.307060, -1.509061, 2.391354, 5.605209, -27.713953, 41.900161, -30.179933, 11.900293, -3.863133, 1.923831, -1.120808, 1.131072, -0.634105, 0.116468, 0.122713, -0.417573, 0.152113, -0.090559 },
{ 0.010555, -0.030762, -0.012318, 0.020468, 1.046749, 0.222327, -0.555663, 0.972501, -0.080988, -1.383198, 0.394456, 0.232537, 1.263218, -0.866204, -0.801604, 9.640807, -30.179933, 41.831609, -28.381353, 11.356986, -4.849910, 2.309499, -1.367326, 0.512276, 0.538005, -0.582347, 0.215240, -0.111411, 0.263699 },
{ 0.007358, 0.018502, -0.014417, -0.004943, -0.582449, 0.368895, 0.091603, -0.275640, -0.212572, 1.033858, -0.607740, -0.033855, -0.679723, 0.280060, 0.814746, -2.352345, 11.900293, -28.381353, 32.938967, -21.286757, 10.373416, -4.913284, 1.834417, 0.011372, -1.276802, 1.072008, -0.151108, 0.147714, -0.277459 },
{ -0.009424, -0.010989, 0.017544, -0.001019, 0.543318, -0.255929, -0.167593, -0.080839, 0.091604, -0.694719, 0.943582, -0.245600, 0.255463, -0.798976, 0.627821, 0.316899, -3.863133, 11.356986, -21.286757, 24.847805, -18.229364, 10.392283, -4.958568, 1.597262, 0.279020, -0.952134, 0.517241, -0.548775, 0.304734 },
{ 0.016325, -0.021498, -0.018580, 0.022112, -0.177844, -0.036958, 0.126172, 0.683032, -0.119054, 0.513463, -0.829546, 0.474839, 0.317979, -0.121813, -1.154643, 0.454358, 1.923831, -4.849910, 10.373416, -18.229364, 21.533813, -16.872336, 10.957973, -5.875242, 1.728171, 0.111844, -0.424691, 0.609346, -0.251898 },
{ -0.014237, 0.026436, 0.011137, -0.019715, -0.034162, 0.222146, 0.105577, -0.835008, -0.036783, -0.450489, 0.634932, -0.178582, -0.791214, 1.128646, 0.537197, -0.556120, -1.120808, 2.309499, -4.913284, 10.392283, -16.872336, 20.013899, -17.453452, 11.087871, -4.955657, 1.272678, -0.043472, -0.562448, 0.260174 },
{ 0.003483, -0.032251, 0.000084, 0.026135, 0.008613, -0.482430, -0.541373, 0.637372, 0.136846, 0.164105, 0.068096, 0.283697, 0.547253, -1.314567, 0.042186, 0.154607, 1.131072, -1.367326, 1.834417, -4.958568, 10.957973, -17.453452, 22.519822, -19.996127, 12.048518, -5.267672, 1.314041, -0.233843, -0.070500 },
{ 0.008437, 0.020587, -0.011554, -0.018992, 0.210133, 0.486236, 0.376231, -0.543649, 0.489365, 0.405918, -0.812004, -0.317202, 0.032997, 0.538617, 0.421985, -0.530967, -0.634105, 0.512276, 0.011372, 1.597262, -5.875242, 11.087871, -19.996127, 25.294701, -19.741589, 10.765450, -3.793380, 1.452325, -0.308921 },
{ -0.008099, 0.002902, 0.009327, -0.002737, -0.003172, -0.050191, -0.141904, 0.250292, -0.576393, -0.629482, 0.551871, 0.354693, -0.345023, 0.259503, -1.072653, 0.792658, 0.116468, 0.538005, -1.276802, 0.279020, 1.728171, -4.955657, 12.048518, -19.741589, 21.036922, -14.801766, 6.818595, -2.755986, 0.738532 },
{ 0.011456, -0.020594, -0.012908, 0.021849, -0.122755, -0.087152, 0.114658, 0.212825, 0.140201, 0.578744, -0.220498, -0.317594, 0.335715, -0.488494, 0.992325, -0.515987, 0.122713, -0.582347, 1.072008, -0.952134, 0.111844, 1.272678, -5.267672, 10.765450, -14.801766, 14.438119, -9.090697, 4.350233, -1.245893 },
{ 0.000352, 0.017760, 0.002356, -0.019529, 0.047975, 0.144588, -0.002029, -0.159783, 0.321041, -0.424661, -0.034634, 0.083704, -0.068482, 0.101022, -0.252294, 0.241105, -0.417573, 0.215240, -0.151108, 0.517241, -0.424691, -0.043472, 1.314041, -3.793380, 6.818595, -9.090697, 8.891306, -5.780624, 1.872709 },
{ -0.003597, -0.006191, 0.002003, 0.006450, 0.039168, -0.052353, 0.170266, -0.006302, -0.442412, 0.179779, 0.143432, -0.340271, 0.461195, -0.106854, -0.450161, 0.429029, 0.152113, -0.111411, 0.147714, -0.548775, 0.609346, -0.562448, -0.233843, 1.452325, -2.755986, 4.350233, -5.780624, 5.748525, -2.625786 },
{ 0.001283, -0.005583, -0.000026, 0.005440, 0.025377, 0.122285, -0.117376, -0.098116, 0.135440, -0.010812, -0.094035, 0.303789, -0.199655, -0.100918, 0.429588, -0.436493, -0.090559, 0.263699, -0.277459, 0.304734, -0.251898, 0.260174, -0.070500, -0.308921, 0.738532, -1.245893, 1.872709, -2.625786, 1.802025 } } };

static const double S_inv_fmdiff[2][29][29] = { { { 0.004275, 0.002513, -0.000480, 0.000367, 0.024163, -0.009555, 0.008957, -0.009246, 0.018984, -0.003695, 0.003807, 0.019145, -0.019482, -0.007079, 0.016007, -0.008081, 0.011227, -0.009073, -0.004691, 0.019658, -0.011316, 0.015383, -0.010781, 0.008638, -0.008197, 0.002104, 0.001914, -0.005603, 0.004418 },
{ 0.002513, 0.018361, -0.000192, 0.000167, 0.019736, -0.021523, 0.015265, -0.020425, 0.010041, -0.010383, 0.002262, 0.039075, -0.012827, -0.055628, 0.054057, 0.004117, 0.000198, -0.007329, -0.019246, 0.013976, 0.001531, -0.004919, 0.009027, -0.008237, 0.001873, 0.001650, 0.003993, -0.013960, 0.012141 },
{ -0.000480, -0.000192, 0.004609, -0.002709, -0.011772, -0.006375, -0.004821, -0.005730, 0.003571, 0.002091, -0.009480, -0.002971, 0.011846, -0.009761, 0.003959, -0.011428, 0.011984, -0.003044, -0.003834, -0.003129, -0.004377, 0.001948, 0.006432, -0.007069, 0.000540, 0.001828, -0.008106, 0.006404, -0.003051 },
{ 0.000367, 0.000167, -0.002709, 0.028768, 0.004989, -0.005063, -0.000604, 0.014400, 0.010716, -0.015444, -0.003492, 0.000271, 0.001684, 0.013925, -0.011934, 0.014455, -0.008338, -0.004614, 0.003186, 0.013478, -0.006194, 0.004294, -0.000350, 0.001528, -0.005115, 0.003856, -0.001810, 0.003435, 0.008402 },
{ 0.024163, 0.019736, -0.011772, 0.004989, 2.103006, -0.598350, -0.818253, -0.658591, 1.328414, -0.378839, -0.274429, 0.304621, -0.115827, -0.089806, 0.324722, -0.113370, -0.338989, 0.173110, 0.100835, -0.088223, 0.159694, -0.085340, 0.225787, -0.086451, 0.001418, -0.137720, 0.245795, -0.259554, 0.087867 },
{ -0.009555, -0.021523, -0.006375, -0.005063, -0.598350, 2.775714, 0.160228, -1.249475, -0.879365, 0.873407, -0.249392, -0.671397, 0.726811, -0.212183, -0.124428, 0.054462, -0.195912, 0.327274, -0.416947, 0.390359, -0.151129, -0.006412, 0.061894, -0.157257, 0.219477, -0.075083, -0.013341, 0.130424, -0.082366 },
{ 0.008957, 0.015265, -0.004821, -0.000604, -0.818253, 0.160228, 3.257094, -0.037534, -2.763632, 0.166397, 0.913735, -0.431640, -0.333649, 0.532773, -1.021943, 0.736569, 0.262459, -0.426833, 0.049926, 0.013334, 0.023513, 0.069459, -0.158894, 0.068509, 0.001956, 0.146670, -0.262209, 0.301933, -0.166245 },
{ -0.009246, -0.020425, -0.005730, 0.014400, -0.658591, -1.249475, -0.037534, 6.122625, -2.029401, -3.773353, 1.481041, 0.960904, -1.039795, 0.548613, -0.409150, 0.340050, -0.589452, 0.495430, 0.207617, -0.291173, 0.187103, -0.036853, -0.041033, -0.355762, 0.478822, -0.104545, 0.039884, -0.011434, -0.053633 },
{ 0.018984, 0.010041, 0.003571, 0.010716, 1.328414, -0.879365, -2.763632, -2.029401, 9.773303, -1.599206, -5.746682, 2.512064, 0.565467, -0.651558, 0.753416, -1.285839, 1.261945, -0.612659, 0.088348, 0.264840, -0.034668, -0.362200, 0.637987, -0.259453, -0.103096, 0.100049, 0.128458, -0.216064, 0.097634 },
{ -0.003695, -0.010383, 0.002091, -0.015444, -0.378839, 0.873407, 0.166397, -3.773353, -1.599206, 10.557237, -2.663134, -6.622370, 4.417056, -0.689939, -0.015392, -0.285933, 0.257448, 0.103341, 0.011052, -0.203954, 0.361952, -0.368080, 0.120112, 0.311308, -0.532189, 0.170048, 0.161973, -0.179503, 0.068514 },
{ 0.003807, 0.002262, -0.009480, -0.003492, -0.274429, -0.249392, 0.913735, 1.481041, -5.746682, -2.663134, 11.346156, -2.210793, -6.021774, 3.349269, -0.349466, 0.399998, -0.890058, 0.981017, -0.459226, -0.089766, -0.332090, 1.083947, -1.122456, 0.418714, 0.043259, 0.002671, -0.241854, 0.351944, -0.124673 },
{ 0.019145, 0.039075, -0.002971, 0.000271, 0.304621, -0.671397, -0.431640, 0.960904, 2.512064, -6.622370, -2.210793, 12.853250, -5.582804, -2.945197, 1.541961, 1.282304, -1.019931, -0.057241, 0.119449, 0.439037, -0.405787, 0.083381, 0.039615, 0.097610, -0.260286, 0.270844, -0.159619, -0.100671, 0.156974 },
{ -0.019482, -0.012827, 0.011846, 0.001684, -0.115827, 0.726811, -0.333649, -1.039795, 0.565467, 4.417056, -6.021774, -5.582804, 15.269032, -8.520704, 0.644879, -0.849376, 2.254942, -1.830850, 0.682837, -0.192182, 1.045560, -1.386082, 1.459914, -0.708477, 0.009278, -0.315435, 0.423698, -0.280804, 0.136677 },
{ -0.007079, -0.055628, -0.009761, 0.013925, -0.089806, -0.212183, 0.532773, 0.548613, -0.651558, -0.689939, 3.349269, -2.945197, -8.520704, 17.992012, -10.417010, 0.300906, -0.224088, 2.722146, -1.429556, -0.623915, -0.068372, 1.180360, -1.684843, 1.175493, -0.159793, 0.217129, -0.536271, 0.598301, -0.237424 },
{ 0.016007, 0.054057, 0.003959, -0.011934, 0.324722, -0.124428, -1.021943, -0.409150, 0.753416, -0.015392, -0.349466, 1.541961, 0.644879, -10.417010, 18.180657, -11.706565, 2.387215, -1.675085, 2.327874, -0.242366, -0.581993, -0.237196, 0.657052, -0.539704, 0.152789, 0.135753, -0.018278, -0.170752, 0.082146 },
{ -0.008081, 0.004117, -0.011428, 0.014455, -0.113370, 0.054462, 0.736569, 0.340050, -1.285839, -0.285933, 0.399998, 1.282304, -0.849376, 0.300906, -11.706565, 25.441951, -19.553329, 6.638604, -2.329316, 1.402456, -0.376360, -0.364044, 0.695336, -0.669932, 0.458241, -0.500924, 0.560250, -0.481134, 0.192655 },
{ 0.011227, 0.000198, 0.011984, -0.008338, -0.338989, -0.195912, 0.262459, -0.589452, 1.261945, 0.257448, -0.890058, -1.019931, 2.254942, -0.224088, 2.387215, -19.553329, 32.672494, -23.007752, 7.944206, -2.614912, 1.066826, 0.646074, -1.252522, 1.119587, -0.546096, 0.407390, -0.553001, 0.326050, -0.173355 },
{ -0.009073, -0.007329, -0.003044, -0.004614, 0.173110, 0.327274, -0.426833, 0.495430, -0.612659, 0.103341, 0.981017, -0.057241, -1.830850, 2.722146, -1.675085, 6.638604, -23.007752, 33.744907, -23.327869, 9.192127, -3.506431, 0.954403, -0.260717, -0.094367, 0.210394, -0.231885, 0.278147, -0.016592, 0.043083 },
{ -0.004691, -0.019246, -0.003834, 0.003186, 0.100835, -0.416947, 0.049926, 0.207617, 0.088348, 0.011052, -0.459226, 0.119449, 0.682837, -1.429556, 2.327874, -2.329316, 7.944206, -23.327869, 30.549505, -20.862126, 10.464160, -5.131005, 2.504720, -1.175530, 0.145621, 0.076697, 0.139424, -0.083526, -0.065051 },
{ 0.019658, 0.013976, -0.003129, 0.013478, -0.088223, 0.390359, 0.013334, -0.291173, 0.264840, -0.203954, -0.089766, 0.439037, -0.192182, -0.623915, -0.242366, 1.402456, -2.614912, 9.192127, -20.862126, 26.493916, -20.639346, 11.808949, -5.805470, 2.800725, -1.055995, 0.323885, -0.375982, 0.168260, 0.018854 },
{ -0.011316, 0.001531, -0.004377, -0.006194, 0.159694, -0.151129, 0.023513, 0.187103, -0.034668, 0.361952, -0.332090, -0.405787, 1.045560, -0.068372, -0.581993, -0.376360, 1.066826, -3.506431, 10.464160, -20.639346, 25.462083, -19.606066, 11.302746, -5.604841, 1.913941, -0.771108, 0.503553, -0.039432, -0.122335 },
{ 0.015383, -0.004919, 0.001948, 0.004294, -0.085340, -0.006412, 0.069459, -0.036853, -0.362200, -0.368080, 1.083947, 0.083381, -1.386082, 1.180360, -0.237196, -0.364044, 0.646074, 0.954403, -5.131005, 11.808949, -19.606066, 23.475416, -18.808088, 10.843177, -4.726522, 1.615186, -0.683977, -0.142311, 0.155835 },
{ -0.010781, 0.009027, 0.006432, -0.000350, 0.225787, 0.061894, -0.158894, -0.041033, 0.637987, 0.120112, -1.122456, 0.039615, 1.459914, -1.684843, 0.657052, 0.695336, -1.252522, -0.260717, 2.504720, -5.805470, 11.302746, -18.808088, 23.092626, -18.997449, 11.571069, -5.303598, 1.746571, -0.520140, 0.050758 },
{ 0.008638, -0.008237, -0.007069, 0.001528, -0.086451, -0.157257, 0.068509, -0.355762, -0.259453, 0.311308, 0.418714, 0.097610, -0.708477, 1.175493, -0.539704, -0.669932, 1.119587, -0.094367, -1.175530, 2.800725, -5.604841, 10.843177, -18.997449, 24.062459, -20.130467, 11.435214, -4.491194, 1.652147, -0.492018 },
{ -0.008197, 0.001873, 0.000540, -0.005115, 0.001418, 0.219477, 0.001956, 0.478822, -0.103096, -0.532189, 0.043259, -0.260286, 0.009278, -0.159793, 0.152789, 0.458241, -0.546096, 0.210394, 0.145621, -1.055995, 1.913941, -4.726522, 11.571069, -20.130467, 23.758892, -17.955960, 8.674421, -3.169616, 0.773840 },
{ 0.002104, 0.001650, 0.001828, 0.003856, -0.137720, -0.075083, 0.146670, -0.104545, 0.100049, 0.170048, 0.002671, 0.270844, -0.315435, 0.217129, 0.135753, -0.500924, 0.407390, -0.231885, 0.076697, 0.323885, -0.771108, 1.615186, -5.303598, 11.435214, -17.955960, 19.476374, -12.844728, 5.878448, -1.608276 },
{ 0.001914, 0.003993, -0.008106, -0.001810, 0.245795, -0.013341, -0.262209, 0.039884, 0.128458, 0.161973, -0.241854, -0.159619, 0.423698, -0.536271, -0.018278, 0.560250, -0.553001, 0.278147, 0.139424, -0.375982, 0.503553, -0.683977, 1.746571, -4.491194, 8.674421, -12.844728, 12.912707, -8.269285, 2.669949 },
{ -0.005603, -0.013960, 0.006404, 0.003435, -0.259554, 0.130424, 0.301933, -0.011434, -0.216064, -0.179503, 0.351944, -0.100671, -0.280804, 0.598301, -0.170752, -0.481134, 0.326050, -0.016592, -0.083526, 0.168260, -0.039432, -0.142311, -0.520140, 1.652147, -3.169616, 5.878448, -8.269285, 8.082119, -3.551823 },
{ 0.004418, 0.012141, -0.003051, 0.008402, 0.087867, -0.082366, -0.166245, -0.053633, 0.097634, 0.068514, -0.124673, 0.156974, 0.136677, -0.237424, 0.082146, 0.192655, -0.173355, 0.043083, -0.065051, 0.018854, -0.122335, 0.155835, 0.050758, -0.492018, 0.773840, -1.608276, 2.669949, -3.551823, 2.311491 } },

{ { 0.008625, 0.003499, -0.000302, 0.000168, -0.049653, 0.089552, -0.008579, 0.026660, -0.065464, 0.034399, 0.011729, -0.007876, -0.023787, 0.008571, 0.001351, 0.007789, -0.012628, 0.018567, -0.012986, -0.011552, 0.034912, -0.026640, 0.003051, 0.022898, -0.023545, 0.009612, 0.001403, 0.006608, -0.002702 },
{ 0.003499, 0.015150, 0.000224, -0.000120, -0.062673, 0.061427, -0.001750, 0.055285, -0.062446, -0.016007, 0.019674, -0.006458, -0.014091, 0.036060, -0.026960, -0.023145, 0.051496, -0.011484, -0.020432, 0.000646, 0.007917, -0.027666, 0.023578, 0.007174, -0.028300, 0.022441, -0.008859, 0.009849, -0.006607 },
{ -0.000302, 0.000224, 0.004683, -0.002658, -0.012736, -0.005048, -0.011105, 0.003943, 0.001470, 0.000413, -0.012350, -0.000779, 0.006696, -0.002533, -0.003155, -0.003759, 0.006539, -0.002123, -0.004852, -0.001532, -0.005079, 0.002737, 0.006260, -0.011144, 0.003470, 0.000642, -0.007756, 0.006595, -0.003399 },
{ 0.000168, -0.000120, -0.002658, 0.028640, 0.003106, -0.005526, 0.005723, 0.004258, 0.010615, -0.002119, -0.006062, -0.007325, 0.007242, 0.012843, -0.009655, 0.004152, 0.001674, -0.003165, 0.000160, 0.012736, -0.001691, -0.002416, 0.005429, -0.003995, -0.003244, 0.001948, -0.001717, 0.004602, 0.009273 },
{ -0.049653, -0.062673, -0.012736, 0.003106, 2.365146, -1.328683, 0.823774, -1.925778, 1.555747, -0.449505, 0.286929, -0.188027, 0.147538, -0.334970, 0.134382, 0.154187, -0.486991, 0.655577, -0.311412, 0.153769, -0.096234, 0.086255, 0.029519, -0.089738, 0.190144, -0.204556, 0.095008, -0.053336, 0.006007 },
{ 0.089552, 0.061427, -0.005048, -0.005526, -1.328683, 3.116060, -0.822336, 0.919690, -2.688352, 1.107262, 0.154854, -0.026382, -0.644384, 0.263537, 0.103296, -0.115180, 0.192628, -0.238592, -0.162324, 0.230514, 0.098460, -0.109926, -0.312616, 0.598721, -0.395466, 0.120622, 0.168880, -0.120938, 0.055404 },
{ -0.008579, -0.001750, -0.011105, 0.005723, 0.823774, -0.822336, 2.543548, -0.775404, 0.265242, -1.705379, 0.585103, 0.085559, 0.060996, -0.004130, -0.244265, 0.228636, -0.350119, 0.239554, 0.247316, -0.398623, 0.289071, -0.038852, -0.085915, 0.064317, -0.124918, 0.321977, -0.269335, 0.191713, -0.115562 },
{ 0.026660, 0.055285, 0.003943, 0.004258, -1.925778, 0.919690, -0.775404, 4.094001, -1.392221, -0.696387, -1.515855, 1.010402, -0.066083, 0.276839, -0.383527, -0.270633, 1.142617, -1.372372, 0.711714, 0.206308, -0.521434, 0.395899, -0.304166, 0.248485, -0.118689, 0.103312, -0.014182, -0.036486, 0.013210 },
{ -0.065464, -0.062446, 0.001470, 0.010615, 1.555747, -2.688352, 0.265242, -1.392221, 5.684475, -0.934718, -1.994636, -1.216832, 2.032225, -0.590607, -0.050711, -0.007445, -0.311710, 0.363022, 0.080654, -0.141558, 0.212920, -0.275694, 0.429915, -0.227036, -0.127876, 0.232439, -0.078937, -0.033496, -0.027437 },
{ 0.034399, -0.016007, 0.000413, -0.002119, -0.449505, 1.107262, -1.705379, -0.696387, -0.934718, 5.332755, -0.492641, -2.607535, -0.235425, 0.785076, 0.148226, -0.604954, 0.226366, 0.534014, -0.634806, 0.020772, 0.550739, -0.374620, 0.166672, -0.136337, 0.298563, -0.559651, 0.506900, -0.194837, 0.081292 },
{ 0.011729, 0.019674, -0.012350, -0.006062, 0.286929, 0.154854, 0.585103, -1.515855, -1.994636, -0.492641, 6.317549, -0.835224, -3.997534, 1.777077, -0.020984, 0.262280, -0.717083, 0.795123, -0.151047, -0.229640, 0.084325, 0.028187, 0.086598, -0.107877, 0.022426, 0.127528, -0.283769, 0.253546, -0.040954 },
{ -0.007876, -0.006458, -0.000779, -0.007325, -0.188027, -0.026382, 0.085559, 1.010402, -1.216832, -2.607535, -0.835224, 7.360683, -1.814919, -4.182628, 2.479936, 0.263404, -0.474855, 0.230467, -0.075018, 0.277418, -0.730184, 0.825566, -0.473784, -0.147419, 0.243612, -0.066549, 0.039109, -0.141214, 0.086156 },
{ -0.023787, -0.014091, 0.006696, 0.007242, 0.147538, -0.644384, 0.060996, -0.066083, 2.032225, -0.235425, -3.997534, -1.814919, 9.891664, -3.500342, -3.631556, 2.089921, 0.793165, -1.269071, 0.667159, -0.235830, 0.701143, -0.673275, 0.409023, 0.198151, -0.636465, 0.297750, -0.046659, 0.085803, -0.069652 },
{ 0.008571, 0.036060, -0.002533, 0.012843, -0.334970, 0.263537, -0.004130, 0.276839, -0.590607, 0.785076, 1.777077, -4.182628, -3.500342, 11.400931, -4.454396, -4.630292, 3.318910, 0.032466, -0.657887, 0.070940, 0.454018, -0.307681, 0.317137, -0.405235, 0.779685, -0.673457, -0.050569, 0.334164, -0.039112 },
{ 0.001351, -0.026960, -0.003155, -0.009655, 0.134382, 0.103296, -0.244265, -0.383527, -0.050711, 0.148226, -0.020984, 2.479936, -3.631556, -4.454396, 11.196260, -3.414018, -5.135240, 4.138722, -0.472459, -0.393328, -0.689164, 0.509151, -0.238381, -0.008978, 0.069743, 0.274552, -0.038010, -0.193843, -0.019648 },
{ 0.007789, -0.023145, -0.003759, 0.004152, 0.154187, -0.115180, 0.228636, -0.270633, -0.007445, -0.604954, 0.262280, 0.263404, 2.089921, -4.630292, -3.414018, 12.942537, -5.676691, -4.253054, 3.204796, -0.182855, -0.110503, -0.204505, 0.352151, 0.115277, -0.840162, 0.644717, -0.031223, -0.353136, 0.183844 },
{ -0.012628, 0.051496, 0.006539, 0.001674, -0.486991, 0.192628, -0.350119, 1.142617, -0.311710, 0.226366, -0.717083, -0.474855, 0.793165, 3.318910, -5.135240, -5.676691, 15.476462, -8.897404, 0.015411, 1.037996, 0.009762, 0.060771, 0.032239, -0.606681, 1.092943, -0.855631, 0.117655, -0.046179, 0.142779 },
{ 0.018567, -0.011484, -0.002123, -0.003165, 0.655577, -0.238592, 0.239554, -1.372372, 0.363022, 0.534014, 0.795123, 0.230467, -1.269071, 0.032466, 4.138722, -4.253054, -8.897404, 19.538698, -12.300778, 2.715678, -0.777424, 0.622650, -0.950687, 0.756951, -0.075201, 0.030853, -0.213552, 0.687944, -0.416669 },
{ -0.012986, -0.020432, -0.004852, 0.000160, -0.311412, -0.162324, 0.247316, 0.711714, 0.080654, -0.634806, -0.151047, -0.075018, 0.667159, -0.657887, -0.472459, 3.204796, 0.015411, -12.300778, 18.984862, -12.439900, 5.550743, -2.830546, 1.818330, -0.934673, -0.277802, 0.276214, 0.356524, -0.537108, 0.211938 },
{ -0.011552, 0.000646, -0.001532, 0.012736, 0.153769, 0.230514, -0.398623, 0.206308, -0.141558, 0.020772, -0.229640, 0.277418, -0.235830, 0.070940, -0.393328, -0.182855, 1.037996, 2.715678, -12.439900, 18.680680, -14.813612, 8.257397, -4.380201, 2.390295, -0.860568, 0.124784, -0.074197, -0.015418, -0.038538 },
{ 0.034912, 0.007917, -0.005079, -0.001691, -0.096234, 0.098460, 0.289071, -0.521434, 0.212920, 0.550739, 0.084325, -0.730184, 0.701143, 0.454018, -0.689164, -0.110503, 0.009762, -0.777424, 5.550743, -14.813612, 20.162743, -15.840320, 9.517370, -5.113115, 1.970057, -0.650719, 0.027447, 0.297231, -0.050699 },
{ -0.026640, -0.027666, 0.002737, -0.002416, 0.086255, -0.109926, -0.038852, 0.395899, -0.275694, -0.374620, 0.028187, 0.825566, -0.673275, -0.307681, 0.509151, -0.204505, 0.060771, 0.622650, -2.830546, 8.257397, -15.840320, 20.550892, -17.190407, 9.668957, -4.112999, 1.293640, -0.298731, -0.086409, -0.137540 },
{ 0.003051, 0.023578, 0.006260, 0.005429, 0.029519, -0.312616, -0.085915, -0.304166, 0.429915, 0.166672, 0.086598, -0.473784, 0.409023, 0.317137, -0.238381, 0.352151, 0.032239, -0.950687, 1.818330, -4.380201, 9.517370, -17.190407, 22.177477, -17.863353, 10.208201, -4.246517, 1.004286, -0.399450, 0.131863 },
{ 0.022898, 0.007174, -0.011144, -0.003995, -0.089738, 0.598721, 0.064317, 0.248485, -0.227036, -0.136337, -0.107877, -0.147419, 0.198151, -0.405235, -0.008978, 0.115277, -0.606681, 0.756951, -0.934673, 2.390295, -5.113115, 9.668957, -17.863353, 22.251508, -17.337616, 9.167575, -3.092085, 1.140902, -0.299511 },
{ -0.023545, -0.028300, 0.003470, -0.003244, 0.190144, -0.395466, -0.124918, -0.118689, -0.127876, 0.298563, 0.022426, 0.243612, -0.636465, 0.779685, 0.069743, -0.840162, 1.092943, -0.075201, -0.277802, -0.860568, 1.970057, -4.112999, 10.208201, -17.337616, 20.153398, -15.392235, 7.368229, -2.779790, 0.698474 },
{ 0.009612, 0.022441, 0.000642, 0.001948, -0.204556, 0.120622, 0.321977, 0.103312, 0.232439, -0.559651, 0.127528, -0.066549, 0.297750, -0.673457, 0.274552, 0.644717, -0.855631, 0.030853, 0.276214, 0.124784, -0.650719, 1.293640, -4.246517, 9.167575, -15.392235, 17.615606, -11.901023, 5.592711, -1.652053 },
{ 0.001403, -0.008859, -0.007756, -0.001717, 0.095008, 0.168880, -0.269335, -0.014182, -0.078937, 0.506900, -0.283769, 0.039109, -0.046659, -0.050569, -0.038010, -0.031223, 0.117655, -0.213552, 0.356524, -0.074197, 0.027447, -0.298731, 1.004286, -3.092085, 7.368229, -11.901023, 12.652426, -8.273977, 2.724526 },
{ 0.006608, 0.009849, 0.006595, 0.004602, -0.053336, -0.120938, 0.191713, -0.036486, -0.033496, -0.194837, 0.253546, -0.141214, 0.085803, 0.334164, -0.193843, -0.353136, -0.046179, 0.687944, -0.537108, -0.015418, 0.297231, -0.086409, -0.399450, 1.140902, -2.779790, 5.592711, -8.273977, 8.067923, -3.536727 },
{ -0.002702, -0.006607, -0.003399, 0.009273, 0.006007, 0.055404, -0.115562, 0.013210, -0.027437, 0.081292, -0.040954, 0.086156, -0.069652, -0.039112, -0.019648, 0.183844, 0.142779, -0.416669, 0.211938, -0.038538, -0.050699, -0.137540, 0.131863, -0.299511, 0.698474, -1.652053, 2.724526, -3.536727, 2.351862 } } };

static const double S_inv_mfdiff[2][29][29] = { { { 0.004695, -0.002680, -0.000275, 0.000209, 0.012902, 0.003896, 0.010722, -0.003812, -0.000210, 0.000846, 0.012536, -0.000580, -0.004851, 0.000630, 0.002055, 0.006369, -0.005292, -0.001618, 0.007961, 0.000333, 0.007256, -0.005828, -0.004101, 0.009281, -0.001474, -0.003332, 0.010271, -0.008382, 0.004431 },
{ -0.002680, 0.029056, 0.000052, -0.000157, -0.005305, 0.009018, -0.005438, -0.003063, -0.015762, 0.006869, 0.000223, 0.009391, -0.009234, -0.010075, 0.015113, -0.011764, -0.007784, 0.012639, -0.007437, -0.003558, -0.007288, 0.009676, -0.008137, -0.000827, 0.010672, -0.006485, 0.001839, -0.004869, -0.009645 },
{ -0.000275, 0.000052, 0.008479, 0.003450, 0.046421, -0.086434, 0.008355, -0.022810, 0.061563, -0.035274, -0.014941, 0.009368, 0.023577, -0.004833, -0.002759, -0.007677, 0.012057, -0.021948, 0.018593, 0.007616, -0.033535, 0.027621, -0.006849, -0.018804, 0.022762, -0.012972, 0.001782, -0.009042, 0.004199 },
{ 0.000209, -0.000157, 0.003450, 0.015101, 0.060758, -0.058886, 0.001313, -0.051158, 0.058886, 0.015960, -0.021401, 0.011036, 0.007542, -0.030669, 0.026666, 0.021864, -0.051099, 0.009645, 0.020522, 0.002218, -0.010070, 0.028658, -0.026938, -0.001638, 0.027026, -0.026317, 0.013396, -0.014825, 0.009463 },
{ 0.012902, -0.005305, 0.046421, 0.060758, 2.338725, -1.290777, 0.794947, -1.897193, 1.508622, -0.436187, 0.310986, -0.184683, 0.073081, -0.209270, 0.076704, 0.179401, -0.514044, 0.631298, -0.265710, 0.128227, -0.101189, 0.078232, 0.064839, -0.129809, 0.248932, -0.254572, 0.116511, -0.069142, 0.021406 },
{ 0.003896, 0.009018, -0.086434, -0.058886, -1.290777, 3.074429, -0.807281, 0.865431, -2.629974, 1.186602, 0.151807, -0.127792, -0.621664, 0.319049, 0.084985, -0.214449, 0.238789, -0.168541, -0.272643, 0.258887, 0.123082, -0.133595, -0.275872, 0.562536, -0.379409, 0.129603, 0.156942, -0.101559, 0.033806 },
{ 0.010722, -0.005438, 0.008355, 0.001313, 0.794947, -0.807281, 2.545468, -0.731129, 0.212457, -1.738727, 0.587655, 0.123904, 0.035658, 0.021354, -0.256131, 0.255767, -0.363878, 0.225038, 0.286835, -0.414332, 0.309048, -0.102507, 0.000186, 0.002876, -0.052491, 0.232327, -0.197660, 0.169334, -0.124698 },
{ -0.003812, -0.003063, -0.022810, -0.051158, -1.897193, 0.865431, -0.731129, 4.055591, -1.336627, -0.703254, -1.545965, 1.030828, -0.003447, 0.148599, -0.328908, -0.270596, 1.130628, -1.295646, 0.629366, 0.229989, -0.541025, 0.420547, -0.331297, 0.309122, -0.224722, 0.180443, -0.040193, -0.033562, 0.010096 },
{ -0.000210, -0.015762, 0.061563, 0.058886, 1.508622, -2.629974, 0.212457, -1.336627, 5.634001, -0.977723, -2.012518, -1.097940, 2.015901, -0.651097, -0.085038, 0.072149, -0.301333, 0.307780, 0.177729, -0.238555, 0.227065, -0.275063, 0.400437, -0.238787, -0.009615, 0.111799, -0.011126, -0.050563, -0.007241 },
{ 0.000846, 0.006869, -0.035274, 0.015960, -0.436187, 1.186602, -1.738727, -0.703254, -0.977723, 5.391180, -0.479809, -2.678067, -0.230112, 0.763195, 0.179931, -0.602359, 0.228061, 0.527400, -0.765778, 0.231615, 0.409940, -0.313780, 0.065507, 0.031027, 0.142762, -0.404086, 0.399233, -0.161982, 0.068537 },
{ 0.012536, 0.000223, -0.014941, -0.021401, 0.310986, 0.151807, 0.587655, -1.545965, -2.012518, -0.479809, 6.456124, -0.905971, -4.097222, 1.837994, -0.020624, 0.309148, -0.757672, 0.736506, -0.043233, -0.209665, 0.026535, 0.098001, 0.021142, -0.041355, -0.094719, 0.224370, -0.327199, 0.267141, -0.045453 },
{ -0.000580, 0.009391, 0.009368, 0.011036, -0.184683, -0.127792, 0.123904, 1.030828, -1.097940, -2.678067, -0.905971, 7.406816, -1.790840, -4.160353, 2.505324, 0.208402, -0.429754, 0.176795, 0.040170, 0.097043, -0.570837, 0.746430, -0.335441, -0.343299, 0.425720, -0.211905, 0.055551, -0.108526, 0.095777 },
{ -0.004851, -0.009234, 0.023577, 0.007542, 0.073081, -0.621664, 0.035658, -0.003447, 2.015901, -0.230112, -4.097222, -1.790840, 9.965020, -3.510531, -3.592449, 1.948455, 0.861490, -1.166108, 0.556014, -0.293157, 0.891535, -0.882199, 0.430520, 0.267503, -0.628878, 0.257395, -0.023261, 0.112495, -0.082960 },
{ 0.000630, -0.010075, -0.004833, -0.030669, -0.209270, 0.319049, 0.021354, 0.148599, -0.651097, 0.763195, 1.837994, -4.160353, -3.510531, 11.372074, -4.567330, -4.355857, 3.219881, -0.101933, -0.623217, 0.298081, 0.088542, 0.017740, 0.179668, -0.431323, 0.714224, -0.560131, -0.021545, 0.252558, -0.065990 },
